  DATE: 2018-03-30 CONTRIBUTOR: Xiaowang Zhou xzhou@sandia.gov and Lucas Hale lucas.hale@nist.gov CITATION: X. W. Zhou, R. A. Johnson, H. N. G. Wadley, Phys. Rev. B, 69, 144113(2004)
  Generated from Zhou04_create_v2.f
  Fixes precision issues with older version
    5 Al Co Cr Fe Ni          
 2000  0.2771569812852027E+00 2000  0.3203566156274691E-02  0.6403928746393108E+01
   13     26.982         4.0502    fcc     
  0.0000000000000000E+00 -0.1035119535693221E+00 -0.2045024659983077E+00 -0.3030030229762930E+00 -0.3990441101926119E+00
 -0.4926562133366003E+00 -0.5838698180975931E+00 -0.6727154101649263E+00 -0.7592234752279351E+00 -0.8434244989759542E+00
 -0.9253489670983199E+00 -0.1005027365284365E+01 -0.1082490179223428E+01 -0.1157767894604843E+01 -0.1230890997117943E+01
 -0.1301889972452067E+01 -0.1370795306296548E+01 -0.1437637484340722E+01 -0.1502446992273923E+01 -0.1565254315785489E+01
 -0.1626089940564752E+01 -0.1684984352301050E+01 -0.1741968036683716E+01 -0.1797071479402086E+01 -0.1850325166145497E+01
 -0.1901759582603282E+01 -0.1951405214464778E+01 -0.1999292547419319E+01 -0.2045452067156241E+01 -0.2089914259364878E+01
 -0.2132709609734567E+01 -0.2173868603954643E+01 -0.2213421727714440E+01 -0.2251399466703294E+01 -0.2287832306610542E+01
 -0.2322750733125515E+01 -0.2356185231937553E+01 -0.2388166288735988E+01 -0.2418724389210157E+01 -0.2447890019049394E+01
 -0.2475693663943035E+01 -0.2502165809580416E+01 -0.2527336941650871E+01 -0.2551237545843736E+01 -0.2573898107848345E+01
 -0.2595349113354035E+01 -0.2615621048050141E+01 -0.2634744397625998E+01 -0.2652749647770941E+01 -0.2669667284174305E+01
 -0.2685527792525425E+01 -0.2700361658513638E+01 -0.2714199367828278E+01 -0.2727071406158680E+01 -0.2739008259194180E+01
 -0.2750040412624113E+01 -0.2760198352137814E+01 -0.2769512563424619E+01 -0.2778013532173863E+01 -0.2785731744074880E+01
 -0.2792697684817007E+01 -0.2798941840089579E+01 -0.2804494695581930E+01 -0.2809386466705006E+01 -0.2813651128605727E+01
 -0.2817325408309968E+01 -0.2820446645361202E+01 -0.2823052179302900E+01 -0.2825179349678535E+01 -0.2826865496031579E+01
 -0.2828147957905504E+01 -0.2829064074843780E+01 -0.2829651186389882E+01 -0.2829946632087281E+01 -0.2829987751479448E+01
 -0.2829811884109855E+01 -0.2829456369521976E+01 -0.2828958547259281E+01 -0.2828355756865242E+01 -0.2827685337883333E+01
 -0.2826984629857024E+01 -0.2826290972329788E+01 -0.2825641704845096E+01 -0.2825074166946421E+01 -0.2824625698177235E+01
 -0.2824316414432402E+01 -0.2823873025456247E+01 -0.2823190055906573E+01 -0.2822271433401461E+01 -0.2821120978793371E+01
 -0.2819742410219666E+01 -0.2818139346956611E+01 -0.2816315313088429E+01 -0.2814273741002189E+01 -0.2812017974718552E+01
 -0.2809551273067762E+01 -0.2806876812719577E+01 -0.2803997691075332E+01 -0.2800916929029723E+01 -0.2797637473609471E+01
 -0.2794162200495503E+01 -0.2790493916434925E+01 -0.2786635361548607E+01 -0.2782589211539906E+01 -0.2778358079809640E+01
 -0.2773944519482169E+01 -0.2769351025347120E+01 -0.2764580035721016E+01 -0.2759633934232833E+01 -0.2754515051537277E+01
 -0.2749225666959297E+01 -0.2743768010073243E+01 -0.2738144262219778E+01 -0.2732356557963566E+01 -0.2726406986494524E+01
 -0.2720297592975298E+01 -0.2714030379837490E+01 -0.2707607308028977E+01 -0.2701030298214600E+01 -0.2694301231932317E+01
 -0.2687421952706841E+01 -0.2680394267122665E+01 -0.2673219945858274E+01 -0.2665900724683256E+01 -0.2658438305419914E+01
 -0.2650834356870954E+01 -0.2643090515714655E+01 -0.2635208387368961E+01 -0.2627189546825763E+01 -0.2619035539456648E+01
 -0.2610747881791302E+01 -0.2602328062269681E+01 -0.2593777541969044E+01 -0.2585097755306862E+01 -0.2576290110720569E+01
 -0.2567355991325109E+01 -0.2558296755549129E+01 -0.2549113737750694E+01 -0.2539808248813300E+01 -0.2530381576722971E+01
 -0.2520834987127166E+01 -0.2511169723876183E+01 -0.2501387009547748E+01 -0.2491488045955407E+01 -0.2481474014641344E+01
 -0.2471346077354184E+01 -0.2461105376512374E+01 -0.2450753035653634E+01 -0.2440290159871014E+01 -0.2429717836236032E+01
 -0.2419037134209365E+01 -0.2408249106039527E+01 -0.2397354787149981E+01 -0.2386355196515080E+01 -0.2375251337025229E+01
 -0.2364044195841652E+01 -0.2352734744741128E+01 -0.2341323940451017E+01 -0.2329812724974948E+01 -0.2318202025909451E+01
 -0.2306492756751859E+01 -0.2294685817199765E+01 -0.2282782093442327E+01 -0.2270782458443671E+01 -0.2258687772218681E+01
 -0.2246498882101401E+01 -0.2234216623006297E+01 -0.2221841817682624E+01 -0.2209375276962096E+01 -0.2196817800000096E+01
 -0.2184170174510619E+01 -0.2171433176995146E+01 -0.2158607572965646E+01 -0.2145694117161891E+01 -0.2132693553763251E+01
 -0.2119606616595145E+01 -0.2106434029330322E+01 -0.2093176505685108E+01 -0.2079834749610796E+01 -0.2066409455480311E+01
 -0.2052901308270295E+01 -0.2039310983738752E+01 -0.2025639148598381E+01 -0.2011886460685728E+01 -0.1998053569126279E+01
 -0.1984141114495615E+01 -0.1970149728976729E+01 -0.1956080036513647E+01 -0.1941932652961424E+01 -0.1927708186232644E+01
 -0.1913407236440509E+01 -0.1899030396038629E+01 -0.1884578249957586E+01 -0.1870051375738378E+01 -0.1855450343662828E+01
 -0.1840775716881030E+01 -0.1826028051535934E+01 -0.1811207896885131E+01 -0.1796315795419925E+01 -0.1781352282981758E+01
 -0.1766317888876066E+01 -0.1751213135983635E+01 -0.1736038540869520E+01 -0.1720794613889591E+01 -0.1705481859294779E+01
 -0.1690100775333067E+01 -0.1674651854349305E+01 -0.1659135582882878E+01 -0.1643552441763321E+01 -0.1627902906203895E+01
 -0.1612187445893203E+01 -0.1596406525084884E+01 -0.1580560602685446E+01 -0.1564650132340262E+01 -0.1548675562517808E+01
 -0.1532637336592154E+01 -0.1516535892923782E+01 -0.1500371664938742E+01 -0.1484145081206224E+01 -0.1467856565514549E+01
 -0.1451506536945633E+01 -0.1435095409947978E+01 -0.1418623594408190E+01 -0.1402091495721099E+01 -0.1385499514858479E+01
 -0.1368848048436428E+01 -0.1352137488781428E+01 -0.1335368223995121E+01 -0.1318540638017824E+01 -0.1301655110690823E+01
 -0.1284712017817467E+01 -0.1267711731223098E+01 -0.1250654618813832E+01 -0.1233541044634233E+01 -0.1216371368923890E+01
 -0.1199145948172932E+01 -0.1181865135176512E+01 -0.1164529279088258E+01 -0.1147138725472745E+01 -0.1129693816356994E+01
 -0.1112194890281016E+01 -0.1094642282347439E+01 -0.1077036324270214E+01 -0.1059377344422458E+01 -0.1041665667883402E+01
 -0.1023901616484508E+01 -0.1006085508854766E+01 -0.9882176604651534E+00 -0.9702983836723292E+00 -0.9523279877615384E+00
 -0.9343067789887535E+00 -0.9162350606220878E+00 -0.8981131329824713E+00 -0.8799412934836173E+00 -0.8617198366712965E+00
 -0.8434490542619267E+00 -0.8251292351804994E+00 -0.8067606655978492E+00 -0.7883436289672895E+00 -0.7698784060606153E+00
 -0.7513652750035081E+00 -0.7328045113103195E+00 -0.7141963879182854E+00 -0.6955411752211629E+00 -0.6768391411022900E+00
 -0.6580905509671102E+00 -0.6392956677751471E+00 -0.6204547520714524E+00 -0.6015680620175280E+00 -0.5826358534217581E+00
 -0.5636583797693162E+00 -0.5446358922516062E+00 -0.5255686397952171E+00 -0.5064568690904007E+00 -0.4873008246191025E+00
 -0.4681007486825368E+00 -0.4488568814283126E+00 -0.4295694608771397E+00 -0.4102387229490978E+00 -0.3908649014894932E+00
 -0.3714482282943152E+00 -0.3519889331352730E+00 -0.3324872437844595E+00 -0.3129433860386143E+00 -0.2933575837430242E+00
 -0.2737300588150314E+00 -0.2540610312672023E+00 -0.2343507192301192E+00 -0.2145993389748330E+00 -0.1948071049349657E+00
 -0.1749742297284840E+00 -0.1551009241791298E+00 -0.1351873973375382E+00 -0.1152338565020288E+00 -0.9524050723908367E-01
 -0.7520755340352686E-01 -0.5513519715838631E-01 -0.3502363899447982E-01 -0.1487307774969214E-01  0.5316289372024795E-02
  0.2554426678192509E-01  0.4581066048803958E-01  0.6611527807699123E-01  0.8645792869608994E-01  0.1068384230356868E+00
  0.1272565733117841E+00  0.1477121932488953E+00  0.1682050980631491E+00  0.1887351044456436E+00  0.2093020305460407E+00
  0.2299056959563776E+00  0.2505459216951288E+00  0.2712225301914838E+00  0.2919353452698554E+00  0.3126841921345880E+00
  0.3334688973549062E+00  0.3542892888500526E+00  0.3751451958746495E+00  0.3960364490042464E+00  0.4169628801210944E+00
  0.4379243224000855E+00  0.4589206102949169E+00  0.4799515795244180E+00  0.5010170670590852E+00  0.5221169111077933E+00
  0.5432509511046827E+00  0.5644190276962353E+00  0.5856209827285187E+00  0.6068566592346039E+00  0.6281259014221489E+00
  0.6494285546611618E+00  0.6707644654719070E+00  0.6921334815129921E+00  0.7135354515696051E+00  0.7349702255419006E+00
  0.7564376544335556E+00  0.7779375903404624E+00  0.7994698864395805E+00  0.8210343969779154E+00  0.8426309772616762E+00
  0.8642594836455334E+00  0.8859197735220502E+00  0.9076117053112287E+00  0.9293351384502080E+00  0.9510899333830668E+00
  0.9728759515508099E+00  0.9946930553814113E+00  0.1016541108280055E+01  0.1038419974619447E+01  0.1060329519730274E+01
  0.1082269609891792E+01  0.1104240112322507E+01  0.1126240895170995E+01  0.1148271827506828E+01  0.1170332779311615E+01
  0.1192423621470158E+01  0.1214544225761711E+01  0.1236694464851354E+01  0.1258874212281472E+01  0.1281083342463336E+01
  0.1303321730668794E+01  0.1325589253022059E+01  0.1347885786491603E+01  0.1370211208882132E+01  0.1392565398826693E+01
  0.1414948235778841E+01  0.1437359600004918E+01  0.1459799372576434E+01  0.1482267435362517E+01  0.1504763671022475E+01
  0.1527287962998432E+01  0.1549840195508060E+01  0.1572420253537401E+01  0.1595028022833760E+01  0.1617663389898700E+01
  0.1640326241981102E+01  0.1663016467070326E+01  0.1685733953889433E+01  0.1708478591888508E+01  0.1731250271238032E+01
  0.1754048882822365E+01  0.1776874318233276E+01  0.1799726469763567E+01  0.1822605230400769E+01  0.1845510493820887E+01
  0.1868442154382258E+01  0.1891400107119441E+01  0.1914384247737207E+01  0.1937394472604571E+01  0.1960430678748914E+01
  0.1983492763850166E+01  0.2006580626235037E+01  0.2029694164871348E+01  0.2052833279362387E+01  0.2075997869941365E+01
  0.2099187837465905E+01  0.2122403083412610E+01  0.2145643509871686E+01  0.2168909019541623E+01  0.2192199515723944E+01
  0.2215514902317999E+01  0.2238855083815820E+01  0.2262219965297053E+01  0.2285609452423909E+01  0.2309023451436196E+01
  0.2332461869146417E+01  0.2355924612934873E+01  0.2379411590744883E+01  0.2402922711077995E+01  0.2426457882989301E+01
  0.2450017016082763E+01  0.2473600020506615E+01  0.2497206806948801E+01  0.2520837286632474E+01  0.2544491371311516E+01
  0.2568168973266149E+01  0.2591870005298554E+01  0.2615594380728564E+01  0.2639342013389372E+01  0.2663112817623323E+01
  0.2686906708277718E+01  0.2710723600700679E+01  0.2734563410737053E+01  0.2758426054724359E+01  0.2782311449488773E+01
  0.2806219512341176E+01  0.2830150161073198E+01  0.2854103313953363E+01  0.2878078889723217E+01  0.2902076807593542E+01
  0.2926096987240570E+01  0.2950139348802278E+01  0.2974203812874671E+01  0.2998290300508151E+01  0.3022398733203897E+01
  0.3046529032910283E+01  0.3070681122019331E+01  0.3094854923363220E+01  0.3119050360210817E+01  0.3143267356264221E+01
  0.3167505835655386E+01  0.3191765722942737E+01  0.3216046943107857E+01  0.3240349421552165E+01  0.3264673084093671E+01
  0.3289017856963737E+01  0.3313383666803865E+01  0.3337770440662540E+01  0.3362178105992093E+01  0.3386606590645583E+01
  0.3411055822873732E+01  0.3435525731321871E+01  0.3460016245026936E+01  0.3484527293414464E+01  0.3509058806295650E+01
  0.3533610713864414E+01  0.3558182946694501E+01  0.3582775435736609E+01  0.3607388112315556E+01  0.3632020908127432E+01
  0.3656673755236851E+01  0.3681346586074167E+01  0.3706039333432732E+01  0.3730751930466206E+01  0.3755484310685858E+01
  0.3780236407957913E+01  0.3805008156500919E+01  0.3829799490883145E+01  0.3854610346019994E+01  0.3879440657171440E+01
  0.3904290359939501E+01  0.3929159390265724E+01  0.3954047684428706E+01  0.3978955179041621E+01  0.4003881811049789E+01
  0.4028827517728248E+01  0.4053792236679372E+01  0.4078775905830484E+01  0.4103778463431527E+01  0.4128799848052709E+01
  0.4153839998582215E+01  0.4178898854223918E+01  0.4203976354495105E+01  0.4229072439224248E+01  0.4254187048548772E+01
  0.4279320122912839E+01  0.4304471603065198E+01  0.4329641430056993E+01  0.4354829545239636E+01  0.4380035890262672E+01
  0.4405260407071689E+01  0.4430503037906216E+01  0.4455763725297663E+01  0.4481042412067288E+01  0.4506339041324137E+01
  0.4531653556463069E+01  0.4556985901162723E+01  0.4582336019383582E+01  0.4607703855365983E+01  0.4633089353628209E+01
  0.4658492458964524E+01  0.4683913116443310E+01  0.4709351271405145E+01  0.4734806869460953E+01  0.4760279856490137E+01
  0.4785770178638738E+01  0.4811277782317616E+01  0.4836802614200648E+01  0.4862344621222923E+01  0.4887903750578974E+01
  0.4913479949721019E+01  0.4939073166357217E+01  0.4964683348449922E+01  0.4990310444213995E+01  0.5015954402115075E+01
  0.5041615170867925E+01  0.5067292699434726E+01  0.5092986937023452E+01  0.5118697833086203E+01  0.5144425337317594E+01
  0.5170169399653131E+01  0.5195929970267618E+01  0.5221706999573555E+01  0.5247500438219585E+01  0.5273310237088920E+01
  0.5299136347297801E+01  0.5324978720193951E+01  0.5350837307355079E+01  0.5376712060587337E+01  0.5402602931923862E+01
  0.5428509873623267E+01  0.5454432838168183E+01  0.5480371778263794E+01  0.5506326646836394E+01  0.5532297397031952E+01
  0.5558283982214697E+01  0.5584286355965689E+01  0.5610304472081454E+01  0.5636338284572548E+01  0.5662387747662232E+01
  0.5688452815785072E+01  0.5714533443585613E+01  0.5740629585917011E+01  0.5766741197839714E+01  0.5792868234620155E+01
  0.5819010651729413E+01  0.5845168404841943E+01  0.5871341449834278E+01  0.5897529742783740E+01  0.5923733239967189E+01
  0.5949951897859759E+01  0.5976185673133614E+01  0.6002434522656708E+01  0.6028698403491553E+01  0.6054977272894015E+01
  0.6081271088312104E+01  0.6107579807384763E+01  0.6133903387940691E+01  0.6160241787997162E+01  0.6186594965758871E+01
  0.6212962879616746E+01  0.6239345488146809E+01  0.6265742750109048E+01  0.6292154624446265E+01  0.6318581070282971E+01
  0.6345022046924245E+01  0.6371477513854660E+01  0.6397947430737156E+01  0.6424431757411976E+01  0.6450930453895571E+01
  0.6477443480379527E+01  0.6503970797229520E+01  0.6530512364984231E+01  0.6557068144354329E+01  0.6583638096221414E+01
  0.6610222181636994E+01  0.6636820361821447E+01  0.6663432598163038E+01  0.6690058852216882E+01  0.6716699085703949E+01
  0.6743353260510089E+01  0.6770021338685037E+01  0.6796703282441428E+01  0.6823399054153847E+01  0.6850108616357848E+01
  0.6876831931749011E+01  0.6903568963182000E+01  0.6930319673669607E+01  0.6957084026381828E+01  0.6983861984644940E+01
  0.7010653511940579E+01  0.7037458571904827E+01  0.7064277128327308E+01  0.7091109145150292E+01  0.7117954586467794E+01
  0.7144813416524710E+01  0.7171685599715911E+01  0.7198571100585402E+01  0.7225469883825421E+01  0.7252381914275611E+01
  0.7279307156922156E+01  0.7306245576896938E+01  0.7333197139476689E+01  0.7360161810082161E+01  0.7387139554277312E+01
  0.7414130337768460E+01  0.7441134126403488E+01  0.7468150886171027E+01  0.7495180583199653E+01  0.7522223183757085E+01
  0.7549278654249407E+01  0.7576346961220262E+01  0.7603428071350089E+01  0.7630521951455346E+01  0.7657628568487730E+01
  0.7684747889533424E+01  0.7711879881812326E+01  0.7739024512677330E+01  0.7766181749613533E+01  0.7793351560237524E+01
  0.7820533912296648E+01  0.7847728773668248E+01  0.7874936112358982E+01  0.7902155896504056E+01  0.7929388094366542E+01
  0.7956632674336656E+01  0.7983889604931058E+01  0.8011158854792139E+01  0.8038440392687342E+01  0.8065734187508449E+01
  0.8093040208270933E+01  0.8120358424113236E+01  0.8147688804296125E+01  0.8175031318201999E+01  0.8202385935334220E+01
  0.8229752625316495E+01  0.8257131357892158E+01  0.8284522102923566E+01  0.8311924830391410E+01  0.8339339510394108E+01
  0.8366766113147154E+01  0.8394204608982468E+01  0.8421654968347790E+01  0.8449117161806031E+01  0.8476591160034685E+01
  0.8504076933825162E+01  0.8531574454082225E+01  0.8559083691823350E+01  0.8586604618178136E+01  0.8614137204387704E+01
  0.8641681421804090E+01  0.8669237241889657E+01  0.8696804636216530E+01  0.8724383576465970E+01  0.8751974034427830E+01
  0.8779575981999958E+01  0.8807189391187634E+01  0.8834814234103010E+01  0.8862450482964512E+01  0.8890098110096329E+01
  0.8917757087927814E+01  0.8945427388992954E+01  0.8973108985929803E+01  0.9000801851479972E+01  0.9028505958488031E+01
  0.9056221279901028E+01  0.9083947788767897E+01  0.9111685458239005E+01  0.9139434261565528E+01  0.9167194172099006E+01
  0.9194965163290778E+01  0.9222747208691496E+01  0.9250540281950576E+01  0.9278344356815721E+01  0.9306159407132398E+01
  0.9333985406843315E+01  0.9361822329987966E+01  0.9389670150702104E+01  0.9417528843217248E+01  0.9445398381860199E+01
  0.9473278741052550E+01  0.9501169895310211E+01  0.9529071819242910E+01  0.9556984487553722E+01  0.9584907875038619E+01
  0.9612841956585957E+01  0.9640786707176035E+01  0.9668742101880614E+01  0.9696708115862483E+01  0.9724684724374958E+01
  0.9752671902761463E+01  0.9780669626455044E+01  0.9808677870977956E+01  0.9836696611941173E+01  0.9864725825043974E+01
  0.9892765486073502E+01  0.9920815570904292E+01  0.9948876055497875E+01  0.9976946915902319E+01  0.1000502812825180E+02
  0.1003311966876620E+02  0.1006122151375064E+02  0.1008933363959508E+02  0.1011745602277392E+02  0.1014558863984553E+02
  0.1017373146745189E+02  0.1020188448231814E+02  0.1023004766125219E+02  0.1025822098114431E+02  0.1028640441896673E+02
  0.1031459795177321E+02  0.1034280155669867E+02  0.1037101521095880E+02  0.1039923889184965E+02  0.1042747257674723E+02
  0.1045571624310712E+02  0.1048396986846414E+02  0.1051223343043184E+02  0.1054050690670228E+02  0.1056879027504553E+02
  0.1059708351330931E+02  0.1062538659941868E+02  0.1065369951137559E+02  0.1068202222725856E+02  0.1071035472522227E+02
  0.1073869698349725E+02  0.1076704898038947E+02  0.1079541069427998E+02  0.1082378210362458E+02  0.1085216318695345E+02
  0.1088055392287078E+02  0.1090895429005444E+02  0.1093736426725560E+02  0.1096578383329844E+02  0.1099421296707972E+02
  0.1102265164756851E+02  0.1105109985380581E+02  0.1107955756490421E+02  0.1110802476004758E+02  0.1113650141849070E+02
  0.1116498751955894E+02  0.1119348304264794E+02  0.1122198796722327E+02  0.1125050227282008E+02  0.1127902593904282E+02
  0.1130755894556488E+02  0.1133610127212829E+02  0.1136465289854338E+02  0.1139321380468848E+02  0.1142178397050957E+02
  0.1145036337602004E+02  0.1147895200130028E+02  0.1150754982649744E+02  0.1153615683182510E+02  0.1156477299756297E+02
  0.1159339830405655E+02  0.1162203273171689E+02  0.1165067626102021E+02  0.1167932887250767E+02  0.1170799054678506E+02
  0.1173666126452244E+02  0.1176534100645394E+02  0.1179402975337740E+02  0.1182272748615409E+02  0.1185143418570844E+02
  0.1188014983302777E+02  0.1190887440916192E+02  0.1193760789522308E+02  0.1196635027238540E+02  0.1199510152188479E+02
  0.1202386162501860E+02  0.1205263056314535E+02  0.1208140831768447E+02  0.1211019487011598E+02  0.1213899020198027E+02
  0.1216779429487779E+02  0.1219660713046883E+02  0.1222542869047317E+02  0.1225425895666989E+02  0.1228309791089709E+02
  0.1231194553505156E+02  0.1234080181108862E+02  0.1236966672102180E+02  0.1239854024692256E+02  0.1242742237092009E+02
  0.1245631307520102E+02  0.1248521234200918E+02  0.1251412015364530E+02  0.1254303649246683E+02  0.1257196134088766E+02
  0.1260089468137783E+02  0.1262983649646335E+02  0.1265878676872592E+02  0.1268774548080266E+02  0.1271671261538593E+02
  0.1274568815522301E+02  0.1277467208311594E+02  0.1280366438192121E+02  0.1283266503454957E+02  0.1286167402396577E+02
  0.1289069133318833E+02  0.1291971694528931E+02  0.1294875084339407E+02  0.1297779301068103E+02  0.1300684343038147E+02
  0.1303590208577928E+02  0.1306496896021072E+02  0.1309404403706423E+02  0.1312312729978016E+02  0.1315221873185058E+02
  0.1318131831681904E+02  0.1321042603828039E+02  0.1323954187988045E+02  0.1326866582531594E+02  0.1329779785833415E+02
  0.1332693796273277E+02  0.1335608612235966E+02  0.1338524232111263E+02  0.1341440654293927E+02  0.1344357877183669E+02
  0.1347275899185130E+02  0.1350194718707868E+02  0.1353114334166325E+02  0.1356034743979818E+02  0.1358955946572512E+02
  0.1361877940373400E+02  0.1364800723816284E+02  0.1367724295339752E+02  0.1370648653387164E+02  0.1373573796406625E+02
  0.1376499722850968E+02  0.1379426431177735E+02  0.1382353919849155E+02  0.1385282187332127E+02  0.1388211232098197E+02
  0.1391141052623544E+02  0.1394071647388953E+02  0.1397003014879803E+02  0.1399935153586043E+02  0.1402868062002178E+02
  0.1405801738627244E+02  0.1408736181964793E+02  0.1411671390522873E+02  0.1414607362814011E+02  0.1417544097355191E+02
  0.1420481592667841E+02  0.1423419847277809E+02  0.1426358859715350E+02  0.1429298628515099E+02  0.1432239152216067E+02
  0.1435180429361608E+02  0.1438122458499416E+02  0.1441065238181491E+02  0.1444008766964136E+02  0.1446953043407932E+02
  0.1449898066077719E+02  0.1452843833542584E+02  0.1455790344375841E+02  0.1458737597155014E+02  0.1461685590461819E+02
  0.1464634322882147E+02  0.1467583793006049E+02  0.1470533999427717E+02  0.1473484940745471E+02  0.1476436615561735E+02
  0.1479389022483028E+02  0.1482342160119944E+02  0.1485296027087134E+02  0.1488250622003296E+02  0.1491205943491148E+02
  0.1494161990177425E+02  0.1497118760692850E+02  0.1500076253672129E+02  0.1503034467753926E+02  0.1505993401580856E+02
  0.1508953053799458E+02  0.1511913423060194E+02  0.1514874508017419E+02  0.1517836307329374E+02  0.1520798819658168E+02
  0.1523762043669764E+02  0.1526725978033961E+02  0.1529690621424382E+02  0.1532655972518456E+02  0.1535622029997406E+02
  0.1538588792546229E+02  0.1541556258853688E+02  0.1544524427612292E+02  0.1547493297518283E+02  0.1550462867271621E+02
  0.1553433135575970E+02  0.1556404101138682E+02  0.1559375762670784E+02  0.1562348118886964E+02  0.1565321168505555E+02
  0.1568294910248521E+02  0.1571269342841445E+02  0.1574244465013512E+02  0.1577220275497496E+02  0.1580196773029748E+02
  0.1583173956350180E+02  0.1586151824202250E+02  0.1589130375332951E+02  0.1592109608492798E+02  0.1595089522435809E+02
  0.1598070115919495E+02  0.1601051387704852E+02  0.1604033336556336E+02  0.1607015961241859E+02  0.1609999260532771E+02
  0.1612983233203849E+02  0.1615967878033283E+02  0.1618953193802663E+02  0.1621939179296965E+02  0.1624925833304541E+02
  0.1627913154617102E+02  0.1630901142029710E+02  0.1633889794340759E+02  0.1636879110351968E+02  0.1639869088868366E+02
  0.1642859728698280E+02  0.1645851028653320E+02  0.1648842987548370E+02  0.1651835604201574E+02  0.1654828877434326E+02
  0.1657822806071249E+02  0.1660817388940198E+02  0.1663812624872233E+02  0.1666808512701615E+02  0.1669805051265791E+02
  0.1672802239405386E+02  0.1675800075964183E+02  0.1678798559789121E+02  0.1681797689730276E+02  0.1684797464640852E+02
  0.1687797883377169E+02  0.1690798944798649E+02  0.1693800647767812E+02  0.1696802991150255E+02  0.1699805973814643E+02
  0.1702809594632705E+02  0.1705813852479211E+02  0.1708818746231970E+02  0.1711824274771814E+02  0.1714830436982589E+02
  0.1717837231751141E+02  0.1720844657967307E+02  0.1723852714523905E+02  0.1726861400316723E+02  0.1729870714244503E+02
  0.1732880655208935E+02  0.1735891222114647E+02  0.1738902413869191E+02  0.1741914229383032E+02  0.1744926667569541E+02
  0.1747939727344981E+02  0.1750953407628496E+02  0.1753967707342106E+02  0.1756982625410688E+02  0.1759998160761973E+02
  0.1763014312326531E+02  0.1766031079037763E+02  0.1769048459831890E+02  0.1772066453647943E+02  0.1775085059427749E+02
  0.1778104276115931E+02  0.1781124102659885E+02  0.1784144538009781E+02  0.1787165581118544E+02  0.1790187230941848E+02
  0.1793209486438112E+02  0.1796232346568478E+02  0.1799255810296811E+02  0.1802279876589683E+02  0.1805304544416370E+02
  0.1808329812748835E+02  0.1811355680561721E+02  0.1814382146832347E+02  0.1817409210540686E+02  0.1820436870669370E+02
  0.1823465126203668E+02  0.1826493976131486E+02  0.1829523419443351E+02  0.1832553455132406E+02  0.1835584082194397E+02
  0.1838615299627668E+02  0.1841647106433147E+02  0.1844679501614341E+02  0.1847712484177324E+02  0.1850746053130731E+02
  0.1853780207485745E+02  0.1856814946256090E+02  0.1859850268458024E+02  0.1862886173110324E+02  0.1865922659234286E+02
  0.1868959725853709E+02  0.1871997371994886E+02  0.1875035596686603E+02  0.1878074398960121E+02  0.1881113777849172E+02
  0.1884153732389951E+02  0.1887194261621104E+02  0.1890235364583723E+02  0.1893277040321335E+02  0.1896319287879894E+02
  0.1899362106307775E+02  0.1902405494655761E+02  0.1905449451977038E+02  0.1908493977327185E+02  0.1911539069764169E+02
  0.1914584728348330E+02  0.1917630952142381E+02  0.1920677740211394E+02  0.1923725091622791E+02  0.1926773005446343E+02
  0.1929821480754153E+02  0.1932870516620655E+02  0.1935920112122603E+02  0.1938970266339062E+02  0.1942020978351400E+02
  0.1945072247243286E+02  0.1948124072100672E+02  0.1951176452011794E+02  0.1954229386067159E+02  0.1957282873359541E+02
  0.1960336912983969E+02  0.1963391504037722E+02  0.1966446645620321E+02  0.1969502336833523E+02  0.1972558576781309E+02
  0.1975615364569880E+02  0.1978672699307647E+02  0.1981730580105228E+02  0.1984789006075435E+02  0.1987847976333269E+02
  0.1990907489995914E+02  0.1993967546182727E+02  0.1997028144015232E+02  0.2000089282617113E+02  0.2003150961114204E+02
  0.2006213178634488E+02  0.2009275934308082E+02  0.2012339227267236E+02  0.2015403056646322E+02  0.2018467421581828E+02
  0.2021532321212351E+02  0.2024597754678592E+02  0.2027663721123345E+02  0.2030730219691493E+02  0.2033797249529997E+02
  0.2036864809787897E+02  0.2039932899616298E+02  0.2043001518168363E+02  0.2046070664599312E+02  0.2049140338066408E+02
  0.2052210537728956E+02  0.2055281262748294E+02  0.2058352512287784E+02  0.2061424285512810E+02  0.2064496581590767E+02
  0.2067569399691059E+02  0.2070642738985083E+02  0.2073716598646236E+02  0.2076790977849898E+02  0.2079865875773427E+02
  0.2082941291596159E+02  0.2086017224499393E+02  0.2089093673666387E+02  0.2092170638282358E+02  0.2095248117534465E+02
  0.2098326110611810E+02  0.2101404616705432E+02  0.2104483635008293E+02  0.2107563164715283E+02  0.2110643205023203E+02
  0.2113723755130765E+02  0.2116804814238585E+02  0.2119886381549174E+02  0.2122968456266937E+02  0.2126051037598161E+02
  0.2129134124751010E+02  0.2132217716935526E+02  0.2135301813363613E+02  0.2138386413249036E+02  0.2141471515807413E+02
  0.2144557120256214E+02  0.2147643225814748E+02  0.2150729831704162E+02  0.2153816937147432E+02  0.2156904541369361E+02
  0.2159992643596569E+02  0.2163081243057486E+02  0.2166170338982354E+02  0.2169259930603213E+02  0.2172350017153900E+02
  0.2175440597870040E+02  0.2178531671989043E+02  0.2181623238750096E+02  0.2184715297394161E+02  0.2187807847163963E+02
  0.2190900887303992E+02  0.2193994417060490E+02  0.2197088435681452E+02  0.2200182942416615E+02  0.2203277936517456E+02
  0.2206373417237185E+02  0.2209469383830740E+02  0.2212565835554781E+02  0.2215662771667685E+02  0.2218760191429542E+02
  0.2221858094102143E+02  0.2224956478948985E+02  0.2228055345235258E+02  0.2231154692227841E+02  0.2234254519195300E+02
  0.2237354825407876E+02  0.2240455610137488E+02  0.2243556872657723E+02  0.2246658612243831E+02  0.2249760828172717E+02
  0.2252863519722945E+02  0.2255966686174721E+02  0.2259070326809898E+02  0.2262174440911964E+02  0.2265279027766039E+02
  0.2268384086658873E+02  0.2271489616878835E+02  0.2274595617715915E+02  0.2277702088461712E+02  0.2280809028409430E+02
  0.2283916436853882E+02  0.2287024313091472E+02  0.2290132656420197E+02  0.2293241466139644E+02  0.2296350741550981E+02
  0.2299460481956952E+02  0.2302570686661874E+02  0.2305681354971634E+02  0.2308792486193678E+02  0.2311904079637012E+02
  0.2315016134612197E+02  0.2318128650431338E+02  0.2321241626408088E+02  0.2324355061857634E+02  0.2327468956096704E+02
  0.2330583308443549E+02  0.2333698118217946E+02  0.2336813384741195E+02  0.2339929107336109E+02  0.2343045285327013E+02
  0.2346161918039736E+02  0.2349279004801611E+02  0.2352396544941466E+02  0.2355514537789624E+02  0.2358632982677891E+02
  0.2361751878939564E+02  0.2364871225909410E+02  0.2367991022923675E+02  0.2371111269320077E+02  0.2374231964437795E+02
  0.2377353107617468E+02  0.2380474698201200E+02  0.2383596735532535E+02  0.2386719218956474E+02  0.2389842147819458E+02
  0.2392965521469366E+02  0.2396089339255514E+02  0.2399213600528645E+02  0.2402338304640930E+02  0.2405463450945963E+02
  0.2408589038798753E+02  0.2411715067555726E+02  0.2414841536574709E+02  0.2417968445214942E+02  0.2421095792837061E+02
  0.2424223578803100E+02  0.2427351802476483E+02  0.2430480463222026E+02  0.2433609560405926E+02  0.2436739093395757E+02
  0.2439869061560474E+02  0.2442999464270400E+02  0.2446130300897225E+02  0.2449261570814007E+02  0.2452393273395157E+02
  0.2455525408016443E+02  0.2458657974054989E+02  0.2461790970889259E+02  0.2464924397899064E+02  0.2468058254465555E+02
  0.2471192539971216E+02  0.2474327253799864E+02  0.2477462395336641E+02  0.2480597963968015E+02  0.2483733959081773E+02
  0.2486870380067018E+02  0.2490007226314162E+02  0.2493144497214928E+02  0.2496282192162343E+02  0.2499420310550731E+02
  0.2502558851775717E+02  0.2505697815234215E+02  0.2508837200324430E+02  0.2511977006445852E+02  0.2515117232999250E+02
  0.2518257879386675E+02  0.2521398945011445E+02  0.2524540429278156E+02  0.2527682331592664E+02  0.2530824651362093E+02
  0.2533967387994822E+02  0.2537110540900487E+02  0.2540254109489974E+02  0.2543398093175422E+02  0.2546542491370210E+02
  0.2549687303488960E+02  0.2552832528947528E+02  0.2555978167163007E+02  0.2559124217553721E+02  0.2562270679539219E+02
  0.2565417552540273E+02  0.2568564835978871E+02  0.2571712529278225E+02  0.2574860631862754E+02  0.2578009143158085E+02
  0.2581158062591054E+02  0.2584307389589700E+02  0.2587457123583255E+02  0.2590607264002152E+02  0.2593757810278012E+02
  0.2596908761843645E+02  0.2600060118133049E+02  0.2603211878581400E+02  0.2606364042625053E+02  0.2609516609701539E+02
  0.2612669579249560E+02  0.2615822950708984E+02  0.2618976723520848E+02  0.2622130897127346E+02  0.2625285470971836E+02
  0.2628440444498823E+02  0.2631595817153969E+02  0.2634751588384085E+02  0.2637907757637124E+02  0.2641064324362182E+02
  0.2644221288009494E+02  0.2647378648030430E+02  0.2650536403877494E+02  0.2653694555004315E+02  0.2656853100865654E+02
  0.2660012040917385E+02  0.2663171374616511E+02  0.2666331101421148E+02  0.2669491220790524E+02  0.2672651732184977E+02
  0.2675812635065953E+02  0.2678973928896003E+02  0.2682135613138776E+02  0.2685297687259020E+02  0.2688460150722578E+02
  0.2691623002996385E+02  0.2694786243548461E+02  0.2697949871847917E+02  0.2701113887364940E+02  0.2704278289570804E+02
  0.2707443077937851E+02  0.2710608251939502E+02  0.2713773811050247E+02  0.2716939754745643E+02  0.2720106082502312E+02
  0.2723272793797936E+02  0.2726439888111258E+02  0.2729607364922074E+02  0.2732775223711236E+02  0.2735943463960642E+02
  0.2739112085153237E+02  0.2742281086773015E+02  0.2745450468305006E+02  0.2748620229235279E+02  0.2751790369050941E+02
  0.2754960887240129E+02  0.2758131783292009E+02  0.2761303056696777E+02  0.2764474706945649E+02  0.2767646733530868E+02
  0.2770819135945688E+02  0.2773991913684384E+02  0.2777165066242242E+02  0.2780338593115558E+02  0.2783512493801635E+02
  0.2786686767798781E+02  0.2789861414606308E+02  0.2793036433724521E+02  0.2796211824654727E+02  0.2799387586899224E+02
  0.2802563719961304E+02  0.2805740223345242E+02  0.2808917096556301E+02  0.2812094339100728E+02  0.2815271950485749E+02
  0.2818449930219570E+02  0.2821628277811366E+02  0.2824806992771289E+02  0.2827986074610461E+02  0.2831165522840967E+02
  0.2834345336975857E+02  0.2837525516529148E+02  0.2840706061015813E+02  0.2843886969951778E+02  0.2847068242853927E+02
  0.2850249879240093E+02  0.2853431878629061E+02  0.2856614240540561E+02  0.2859796964495265E+02  0.2862980050014786E+02
  0.2866163496621681E+02  0.2869347303839434E+02  0.2872531471192473E+02  0.2875715998206148E+02  0.2878900884406744E+02
  0.2882086129321469E+02  0.2885271732478456E+02  0.2888457693406757E+02  0.2891644011636347E+02  0.2894830686698115E+02
  0.2898017718123862E+02  0.2901205105446303E+02  0.2904392848199062E+02  0.2907580945916666E+02  0.2910769398134552E+02
  0.2913958204389056E+02  0.2917147364217411E+02  0.2920336877157751E+02  0.2923526742749103E+02  0.2926716960531384E+02
  0.2929907530045407E+02  0.2933098450832865E+02  0.2936289722436344E+02  0.2939481344399304E+02  0.2942673316266095E+02
  0.2945865637581936E+02  0.2949058307892931E+02  0.2952251326746051E+02  0.2955444693689140E+02  0.2958638408270912E+02
  0.2961832470040950E+02  0.2965026878549695E+02  0.2968221633348456E+02  0.2971416733989400E+02  0.2974612180025552E+02
  0.2977807971010791E+02  0.2981004106499851E+02  0.2984200586048315E+02  0.2987397409212619E+02  0.2990594575550040E+02
  0.2993792084618705E+02  0.2996989935977578E+02  0.3000188129186465E+02  0.3003386663806011E+02  0.3006585539397695E+02
  0.3009784755523831E+02  0.3012984311747563E+02  0.3016184207632863E+02  0.3019384442744534E+02  0.3022585016648197E+02
  0.3025785928910305E+02  0.3028987179098122E+02  0.3032188766779737E+02  0.3035390691524053E+02  0.3038592952900787E+02
  0.3041795550480468E+02  0.3044998483834439E+02  0.3048201752534843E+02  0.3051405356154636E+02  0.3054609294267574E+02
  0.3057813566448215E+02  0.3061018172271920E+02  0.3064223111314842E+02  0.3067428383153935E+02  0.3070633987366945E+02
  0.3073839923532406E+02  0.3077046191229646E+02  0.3080252790038778E+02  0.3083459719540701E+02  0.3086666979317097E+02
  0.3089874568950430E+02  0.3093082488023946E+02  0.3096290736121663E+02  0.3099499312828377E+02  0.3102708217729660E+02
  0.3105917450411852E+02  0.3109127010462062E+02  0.3112336897468171E+02  0.3115547111018823E+02  0.3118757650703427E+02
  0.3121968516112149E+02  0.3125179706835924E+02  0.3128391222466432E+02  0.3131603062596124E+02  0.3134815226818192E+02
  0.3138027714726591E+02  0.3141240525916016E+02  0.3144453659981921E+02  0.3147667116520496E+02  0.3150880895128683E+02
  0.3154094995404165E+02  0.3157309416945365E+02  0.3160524159351445E+02  0.3163739222222307E+02  0.3166954605158582E+02
  0.3170170307761641E+02  0.3173386329633584E+02  0.3176602670377243E+02  0.3179819329596172E+02  0.3183036306894659E+02
  0.3186253601877710E+02  0.3189471214151057E+02  0.3192689143321151E+02  0.3195907388995164E+02  0.3199125950780985E+02
  0.3202344828287218E+02  0.3205564021123175E+02  0.3208783528898889E+02  0.3212003351225099E+02  0.3215223487713250E+02
  0.3218443937975498E+02  0.3221664701624699E+02  0.3224885778274417E+02  0.3228107167538913E+02  0.3231328869033150E+02
  0.3234550882372789E+02  0.3237773207174185E+02  0.3240995843054390E+02  0.3244218789631145E+02  0.3247442046522887E+02
  0.3250665613348738E+02  0.3253889489728509E+02  0.3257113675282697E+02  0.3260338169632485E+02  0.3263562972399733E+02
  0.3266788083206989E+02  0.3270013501677474E+02  0.3273239227435091E+02  0.3276465260104417E+02  0.3279691599310701E+02
  0.3282918244679868E+02  0.3286145195838512E+02  0.3289372452413897E+02  0.3292600014033955E+02  0.3295827880327280E+02
  0.3299056050923136E+02  0.3302284525451448E+02  0.3305513303542800E+02  0.3308742384828435E+02  0.3311971768940261E+02
  0.3315201455510832E+02  0.3318431444173363E+02  0.3321661734561719E+02  0.3324892326310424E+02  0.3328123219054639E+02
  0.3331354412430186E+02  0.3334585906073525E+02  0.3337817699621767E+02  0.3341049792712663E+02  0.3344282184984606E+02
  0.3347514876076631E+02  0.3350747865628416E+02  0.3353981153280268E+02  0.3357214738673134E+02  0.3360448621448598E+02
  0.3363682801248874E+02  0.3366917277716806E+02  0.3370152050495873E+02  0.3373387119230173E+02  0.3376622483564443E+02
  0.3379858143144035E+02  0.3383094097614933E+02  0.3386330346623733E+02  0.3389566889817662E+02  0.3392803726844561E+02
  0.3396040857352893E+02  0.3399278280991729E+02  0.3402515997410764E+02  0.3405754006260302E+02  0.3408992307191260E+02
  0.3412230899855165E+02  0.3415469783904150E+02  0.3418708958990965E+02  0.3421948424768955E+02  0.3425188180892076E+02
  0.3428428227014886E+02  0.3431668562792544E+02  0.3434909187880812E+02  0.3438150101936047E+02  0.3441391304615208E+02
  0.3444632795575846E+02  0.3447874574476110E+02  0.3451116640974737E+02  0.3454358994731066E+02  0.3457601635405015E+02
  0.3460844562657100E+02  0.3464087776148418E+02  0.3467331275540657E+02  0.3470575060496089E+02  0.3473819130677569E+02
  0.3477063485748534E+02  0.3480308125373002E+02  0.3483553049215570E+02  0.3486798256941416E+02  0.3490043748216289E+02
  0.3493289522706520E+02  0.3496535580079010E+02  0.3499781920001232E+02  0.3503028542141236E+02  0.3506275446167633E+02
  0.3509522631749612E+02  0.3512770098556924E+02  0.3516017846259886E+02  0.3519265874529383E+02  0.3522514183036860E+02
  0.3525762771454325E+02  0.3529011639454347E+02  0.3532260786710057E+02  0.3535510212895139E+02  0.3538759917683840E+02
  0.3542009900750956E+02  0.3545260161771844E+02  0.3548510700422408E+02  0.3551761516379108E+02  0.3555012609318951E+02
  0.3558263978919496E+02  0.3561515624858852E+02  0.3564767546815667E+02  0.3568019744469140E+02  0.3571272217499013E+02
  0.3574524965585573E+02  0.3577777988409644E+02  0.3581031285652595E+02  0.3584284856996330E+02  0.3587538702123292E+02
  0.3590792820716465E+02  0.3594047212459363E+02  0.3597301877036035E+02  0.3600556814131065E+02  0.3603812023429567E+02
  0.3607067504617184E+02  0.3610323257380097E+02  0.3613579281405001E+02  0.3616835576379130E+02  0.3620092141990236E+02
  0.3623348977926601E+02  0.3626606083877024E+02  0.3629863459530834E+02  0.3633121104577874E+02  0.3636379018708511E+02
  0.3639637201613623E+02  0.3642895652984619E+02  0.3646154372513411E+02  0.3649413359892433E+02  0.3652672614814627E+02
  0.3655932136973458E+02  0.3659191926062890E+02  0.3662451981777405E+02  0.3665712303811994E+02  0.3668972891862152E+02
  0.3672233745623883E+02  0.3675494864793698E+02  0.3678756249068610E+02  0.3682017898146138E+02  0.3685279811724300E+02
  0.3688541989501619E+02  0.3691804431177113E+02  0.3695067136450304E+02  0.3698330105021211E+02  0.3701593336590346E+02
  0.3704856830858716E+02  0.3708120587527828E+02  0.3711384606299681E+02  0.3714648886876760E+02  0.3717913428962048E+02
  0.3721178232259014E+02  0.3724443296471618E+02  0.3727708621304308E+02  0.3730974206462015E+02  0.3734240051650162E+02
  0.3737506156574648E+02  0.3740772520941862E+02  0.3744039144458674E+02  0.3747306026832433E+02  0.3750573167770970E+02
  0.3753840566982596E+02  0.3757108224176099E+02  0.3760376139060740E+02  0.3763644311346265E+02  0.3766912740742884E+02
  0.3770181426961290E+02  0.3773450369712644E+02  0.3776719568708577E+02  0.3779989023661199E+02  0.3783258734283079E+02
  0.3786528700287258E+02  0.3789798921387251E+02  0.3793069397297030E+02  0.3796340127731040E+02  0.3799611112404183E+02
  0.3802882351031833E+02  0.3806153843329817E+02  0.3809425589014433E+02  0.3812697587802429E+02  0.3815969839411023E+02
  0.3819242343557884E+02  0.3822515099961139E+02  0.3825788108339373E+02  0.3829061368411627E+02  0.3832334879897392E+02
  0.3835608642516621E+02  0.3838882655989707E+02  0.3842156920037504E+02  0.3845431434381312E+02  0.3848706198742884E+02
  0.3851981212844415E+02  0.3855256476408554E+02  0.3858531989158391E+02  0.3861807750817466E+02  0.3865083761109757E+02
  0.3868360019759695E+02  0.3871636526492142E+02  0.3874913281032412E+02  0.3878190283106253E+02  0.3881467532439856E+02
  0.3884745028759848E+02  0.3888022771793295E+02  0.3891300761267697E+02  0.3894578996910997E+02  0.3897857478451566E+02
  0.3901136205618208E+02  0.3904415178140167E+02  0.3907694395747112E+02  0.3910973858169146E+02  0.3914253565136804E+02
  0.3917533516381044E+02  0.3920813711633262E+02  0.3924094150625270E+02  0.3927374833089317E+02  0.3930655758758068E+02
  0.3933936927364620E+02  0.3937218338642489E+02  0.3940499992325618E+02  0.3943781888148365E+02  0.3947064025845516E+02
  0.3950346405152276E+02  0.3953629025804263E+02  0.3956911887537518E+02  0.3960194990088502E+02  0.3963478333194086E+02
  0.3966761916591561E+02  0.3970045740018629E+02  0.3973329803213412E+02  0.3976614105914436E+02  0.3979898647860648E+02
  0.3983183428791398E+02  0.3986468448446454E+02  0.3989753706565985E+02  0.3993039202890576E+02  0.3996324937161215E+02
  0.3999610909119297E+02  0.4002897118506626E+02  0.4006183565065408E+02  0.4009470248538253E+02  0.4012757168668175E+02
  0.4016044325198590E+02  0.4019331717873319E+02  0.4022619346436576E+02  0.4025907210632985E+02  0.4029195310207560E+02
  0.4032483644905716E+02  0.4035772214473269E+02  0.4039061018656425E+02  0.4042350057201791E+02  0.4045639329856365E+02
  0.4048928836367541E+02  0.4052218576483108E+02  0.4055508549951243E+02  0.4058798756520517E+02  0.4062089195939888E+02
  0.4065379867958712E+02  0.4068670772326723E+02  0.4071961908794055E+02  0.4075253277111219E+02  0.4078544877029118E+02
  0.4081836708299038E+02  0.4085128770672654E+02  0.4088421063902019E+02  0.4091713587739575E+02  0.4095006341938145E+02
  0.4098299326250931E+02  0.4101592540431517E+02  0.4104885984233869E+02  0.4108179657412330E+02  0.4111473559721625E+02
  0.4114767690916848E+02  0.4118062050753484E+02  0.4121356638987379E+02  0.4124651455374767E+02  0.4127946499672247E+02
  0.4131241771636798E+02  0.4134537271025768E+02  0.4137832997596880E+02  0.4141128951108226E+02  0.4144425131318273E+02
  0.4147721537985851E+02  0.4151018170870166E+02  0.4154315029730787E+02  0.4157612114327655E+02  0.4160909424421073E+02
  0.4164206959771715E+02  0.4167504720140617E+02  0.4170802705289182E+02  0.4174100914979173E+02  0.4177399348972721E+02
  0.4180698007032315E+02  0.4183996888920807E+02  0.4187295994401410E+02  0.4190595323237699E+02  0.4193894875193602E+02
  0.4197194650033414E+02  0.4200494647521783E+02  0.4203794867423714E+02  0.4207095309504569E+02  0.4210395973530066E+02
  0.4213696859266277E+02  0.4216997966479631E+02  0.4220299294936905E+02  0.4223600844405233E+02  0.4226902614652101E+02
  0.4230204605445346E+02  0.4233506816553149E+02  0.4236809247744053E+02  0.4240111898786940E+02  0.4243414769451046E+02
  0.4246717859505951E+02  0.4250021168721584E+02  0.4253324696868221E+02  0.4256628443716479E+02  0.4259932409037327E+02
  0.4263236592602072E+02  0.4266540994182367E+02  0.4269845613550208E+02  0.4273150450477933E+02  0.4276455504738220E+02
  0.4279760776104087E+02  0.4283066264348897E+02  0.4286371969246348E+02  0.4289677890570476E+02  0.4292984028095654E+02
  0.4296290381596597E+02  0.4299596950848357E+02  0.4302903735626312E+02  0.4306210735706186E+02  0.4309517950864034E+02
  0.4312825380876243E+02  0.4316133025519532E+02  0.4319440884570960E+02  0.4322748957807906E+02  0.4326057245008092E+02
  0.4329365745949563E+02  0.4332674460410695E+02  0.4335983388170195E+02  0.4339292529007099E+02  0.4342601882700765E+02
  0.4345911449030887E+02  0.4349221227777477E+02  0.4352531218720878E+02  0.4355841421641758E+02  0.4359151836321108E+02
  0.4362462462540243E+02  0.4365773300080798E+02  0.4369084348724738E+02  0.4372395608254346E+02  0.4375707078452223E+02
  0.4379018759101294E+02  0.4382330649984808E+02  0.4385642750886325E+02  0.4388955061589729E+02  0.4392267581879220E+02
  0.4395580311539317E+02  0.4398893250354854E+02  0.4402206398110987E+02  0.4405519754593175E+02  0.4408833319587205E+02
  0.4412147092879172E+02  0.4415461074255486E+02  0.4418775263502867E+02  0.4422089660408354E+02  0.4425404264759291E+02
  0.4428719076343338E+02  0.4432034094948462E+02  0.4435349320362943E+02  0.4438664752375367E+02  0.4441980390774633E+02
  0.4445296235349944E+02  0.4448612285890814E+02  0.4451928542187059E+02  0.4455245004028808E+02  0.4458561671206490E+02
  0.4461878543510839E+02  0.4465195620732902E+02  0.4468512902664018E+02  0.4471830389095836E+02  0.4475148079820307E+02
  0.4478465974629685E+02  0.4481784073316521E+02  0.4485102375673672E+02  0.4488420881494292E+02  0.4491739590571838E+02
  0.4495058502700060E+02  0.4498377617673015E+02  0.4501696935285051E+02  0.4505016455330816E+02  0.4508336177605256E+02
  0.4511656101903611E+02  0.4514976228021416E+02  0.4518296555754506E+02  0.4521617084899005E+02  0.4524937815251332E+02
  0.4528258746608201E+02  0.4531579878766619E+02  0.4534901211523884E+02  0.4538222744677584E+02  0.4541544478025602E+02
  0.4544866411366107E+02  0.4548188544497561E+02  0.4551510877218715E+02  0.4554833409328609E+02  0.4558156140626567E+02
  0.4561479070912209E+02  0.4564802199985436E+02  0.4568125527646432E+02  0.4571449053695679E+02  0.4574772777933929E+02
  0.4578096700162236E+02  0.4581420820181923E+02  0.4584745137794605E+02  0.4588069652802178E+02  0.4591394365006823E+02
  0.4594719274210998E+02  0.4598044380217449E+02  0.4601369682829199E+02  0.4604695181849551E+02  0.4608020877082089E+02
  0.4611346768330679E+02  0.4614672855399459E+02  0.4617999138092857E+02  0.4621325616215567E+02  0.4624652289572564E+02
  0.4627979157969102E+02  0.4631306221210715E+02  0.4634633479103198E+02  0.4637960931452639E+02  0.4641288578065389E+02
  0.4644616418748077E+02  0.4647944453307603E+02  0.4651272681551146E+02  0.4654601103286151E+02  0.4657929718320339E+02
  0.4661258526461699E+02  0.4664587527518495E+02  0.4667916721299258E+02  0.4671246107612792E+02  0.4674575686268169E+02
  0.4677905457074729E+02  0.4681235419842080E+02  0.4684565574380100E+02  0.4687895920498934E+02  0.4691226458008993E+02
  0.4694557186720953E+02  0.4697888106445761E+02  0.4701219216994622E+02  0.4704550518179011E+02  0.4707882009810666E+02
  0.4711213691701591E+02  0.4714545563664043E+02  0.4717877625510562E+02  0.4721209877053928E+02  0.4724542318107198E+02
  0.4727874948483685E+02  0.4731207767996961E+02  0.4734540776460865E+02  0.4737873973689486E+02  0.4741207359497179E+02
  0.4744540933698561E+02  0.4747874696108499E+02  0.4751208646542123E+02  0.4754542784814819E+02  0.4757877110742231E+02
  0.4761211624140259E+02  0.4764546324825056E+02  0.4767881212613039E+02  0.4771216287320866E+02  0.4774551548765467E+02
  0.4777886996764008E+02  0.4781222631133922E+02  0.4784558451692890E+02  0.4787894458258847E+02  0.4791230650649977E+02
  0.4794567028684719E+02  0.4797903592181761E+02  0.4801240340960043E+02  0.4804577274838756E+02  0.4807914393637340E+02
  0.4811251697175483E+02  0.4814589185273123E+02  0.4817926857750445E+02  0.4821264714427888E+02  0.4824602755126130E+02
  0.4827940979666100E+02  0.4831279387868974E+02  0.4834617979556172E+02  0.4837956754549364E+02  0.4841295712670460E+02
  0.4844634853741616E+02  0.4847974177585237E+02  0.4851313684023964E+02  0.4854653372880686E+02  0.4857993243978537E+02
  0.4861333297140887E+02  0.4864673532191355E+02  0.4868013948953795E+02  0.4871354547252308E+02  0.4874695326911232E+02
  0.4878036287755147E+02  0.4881377429608869E+02  0.4884718752297459E+02  0.4888060255646214E+02  0.4891401939480669E+02
  0.4894743803626601E+02  0.4898085847910017E+02  0.4901428072157164E+02  0.4904770476194530E+02  0.4908113059848835E+02
  0.4911455822947038E+02  0.4914798765316330E+02  0.4918141886784139E+02  0.4921485187178125E+02  0.4924828666326189E+02
  0.4928172324056452E+02  0.4931516160197287E+02  0.4934860174577281E+02  0.4938204367025270E+02  0.4941548737370306E+02
  0.4944893285441687E+02  0.4948238011068931E+02  0.4951582914081796E+02  0.4954927994310261E+02  0.4958273251584543E+02
  0.4961618685735080E+02  0.4964964296592552E+02  0.4968310083987851E+02  0.4971656047752109E+02  0.4975002187716682E+02
  0.4978348503713154E+02  0.4981694995573337E+02  0.4985041663129267E+02  0.4988388506213204E+02  0.4991735524657643E+02
  0.4995082718295288E+02  0.4998430086959090E+02  0.5001777630482204E+02  0.5005125348698022E+02  0.5008473241440149E+02
  0.5011821308542426E+02  0.5015169549838910E+02  0.5018517965163873E+02  0.5021866554351823E+02  0.5025215317237483E+02
  0.5028564253655794E+02  0.5031913363441925E+02  0.5035262646431257E+02  0.5038612102459400E+02  0.5041961731362176E+02
  0.5045311532975632E+02  0.5048661507136028E+02  0.5052011653679850E+02  0.5055361972443793E+02  0.5058712463264778E+02
  0.5062063125979939E+02  0.5065413960426626E+02  0.5068764966442407E+02  0.5072116143865068E+02  0.5075467492532605E+02
  0.5078819012283239E+02  0.5082170702955393E+02  0.5085522564387718E+02  0.5088874596419065E+02  0.5092226798888515E+02
  0.5095579171635348E+02  0.5098931714499064E+02  0.5102284427319373E+02  0.5105637309936204E+02  0.5108990362189686E+02
  0.2578844276293752E+02  0.2578844276293752E+02  0.2578844276293752E+02  0.2578844276293752E+02  0.2578844276293752E+02
  0.2578844276293752E+02  0.2578844276293752E+02  0.2578844276293752E+02  0.2578844276293752E+02  0.2578844276293752E+02
  0.2578844276293752E+02  0.2578844276293752E+02  0.2578844276293752E+02  0.2578844276293752E+02  0.2578844276293752E+02
  0.2578844276293752E+02  0.2578844276293752E+02  0.2578844276293752E+02  0.2578844276293752E+02  0.2578844276293752E+02
  0.2578844276293752E+02  0.2578844276293752E+02  0.2578844276293752E+02  0.2578844276293752E+02  0.2578844276293752E+02
  0.2578844276293752E+02  0.2578844276293752E+02  0.2578844276293752E+02  0.2578844276293752E+02  0.2578844276293752E+02
  0.2578844276293752E+02  0.2578844276293752E+02  0.2578844276293752E+02  0.2578844276293752E+02  0.2578844276293752E+02
  0.2578844276293752E+02  0.2578844276293752E+02  0.2578844276293752E+02  0.2578844276293752E+02  0.2578844276293752E+02
  0.2578844276293752E+02  0.2578844276293752E+02  0.2578844276293752E+02  0.2578844276293752E+02  0.2578844276293752E+02
  0.2578844276293752E+02  0.2578844276293752E+02  0.2578844276293752E+02  0.2578844276293752E+02  0.2578844276293752E+02
  0.2578844276293752E+02  0.2578844276293752E+02  0.2578844276293752E+02  0.2578844276293752E+02  0.2578844276293752E+02
  0.2578844276293752E+02  0.2578844276293752E+02  0.2578844276293752E+02  0.2578844276293752E+02  0.2578844276293752E+02
  0.2578844276293752E+02  0.2578844276293752E+02  0.2578844276293752E+02  0.2578844276293752E+02  0.2578844276293752E+02
  0.2578844276293752E+02  0.2578844276293752E+02  0.2578844276293752E+02  0.2578844276293752E+02  0.2578844276293752E+02
  0.2578844276293752E+02  0.2578844276293752E+02  0.2578844276293752E+02  0.2578844276293752E+02  0.2578844276293752E+02
  0.2578844276293752E+02  0.2578844276293752E+02  0.2578844276293752E+02  0.2578844276293752E+02  0.2578844276293752E+02
  0.2578844276293752E+02  0.2578844276293752E+02  0.2578844276293752E+02  0.2578844276293752E+02  0.2578844276293752E+02
  0.2578844276293752E+02  0.2578844276293752E+02  0.2578844276293752E+02  0.2578844276293752E+02  0.2578844276293752E+02
  0.2578844276293752E+02  0.2578844276293752E+02  0.2578844276293752E+02  0.2578844276293752E+02  0.2578844276293752E+02
  0.2578844276293752E+02  0.2578844276293752E+02  0.2578844276293752E+02  0.2578844276293752E+02  0.2578844276293752E+02
  0.2578844276293752E+02  0.2578844276293752E+02  0.2578844276293752E+02  0.2578844276293752E+02  0.2578844276293752E+02
  0.2578844276293752E+02  0.2578844276293752E+02  0.2578844276293752E+02  0.2578844276293752E+02  0.2578844276293752E+02
  0.2578844276293752E+02  0.2578844276293752E+02  0.2578844276293752E+02  0.2578844276293752E+02  0.2578844276293752E+02
  0.2578844276293752E+02  0.2578844276293752E+02  0.2578844276293752E+02  0.2578844276293752E+02  0.2578844276293752E+02
  0.2578844276293752E+02  0.2578844276293752E+02  0.2578844276293752E+02  0.2578844276293752E+02  0.2578844276293752E+02
  0.2578844276293752E+02  0.2578844276293752E+02  0.2578844276293752E+02  0.2578844276293752E+02  0.2578844276293752E+02
  0.2578844276293752E+02  0.2578844276293752E+02  0.2578844276293752E+02  0.2578844276293752E+02  0.2578844276293752E+02
  0.2578844276293752E+02  0.2578844276293752E+02  0.2578844276293752E+02  0.2578844276293752E+02  0.2578844276293752E+02
  0.2578844276293752E+02  0.2578844276293752E+02  0.2578844276293752E+02  0.2578844276293752E+02  0.2578844276293752E+02
  0.2578844276293752E+02  0.2578844276293752E+02  0.2578844276293752E+02  0.2578844276293752E+02  0.2578844276293752E+02
  0.2578844276293752E+02  0.2578844276293752E+02  0.2578844276293752E+02  0.2578844276293752E+02  0.2578844276293752E+02
  0.2578844276293752E+02  0.2578844276293752E+02  0.2569462954036568E+02  0.2559347672787020E+02  0.2549272139385769E+02
  0.2539236200413482E+02  0.2529239702942677E+02  0.2519282494539679E+02  0.2509364423266448E+02  0.2499485337682270E+02
  0.2489645086845317E+02  0.2479843520314090E+02  0.2470080488148743E+02  0.2460355840912286E+02  0.2450669429671683E+02
  0.2441021105998832E+02  0.2431410721971459E+02  0.2421838130173900E+02  0.2412303183697782E+02  0.2402805736142624E+02
  0.2393345641616339E+02  0.2383922754735653E+02  0.2374536930626439E+02  0.2365188024923964E+02  0.2355875893773079E+02
  0.2346600393828304E+02  0.2337361382253865E+02  0.2328158716723654E+02  0.2318992255421110E+02  0.2309861857039059E+02
  0.2300767380779469E+02  0.2291708686353159E+02  0.2282685633979442E+02  0.2273698084385721E+02  0.2264745898807023E+02
  0.2255828938985482E+02  0.2246947067169785E+02  0.2238100146114552E+02  0.2229288039079681E+02  0.2220510609829648E+02
  0.2211767722632768E+02  0.2203059242260402E+02  0.2194385033986139E+02  0.2185744963584940E+02  0.2177138897332230E+02
  0.2168566702002980E+02  0.2160028244870736E+02  0.2151523393706622E+02  0.2143052016778321E+02  0.2134613982849009E+02
  0.2126209161176285E+02  0.2117837421511051E+02  0.2109498634096381E+02  0.2101192669666360E+02  0.2092919399444902E+02
  0.2084678695144547E+02  0.2076470428965227E+02  0.2068294473593028E+02  0.2060150702198916E+02  0.2052038988437457E+02
  0.2043959206445514E+02  0.2035911230840929E+02  0.2027894936721184E+02  0.2019910199662054E+02  0.2011956895716241E+02
  0.2004034901411999E+02  0.1996144093751740E+02  0.1988284350210634E+02  0.1980455548735186E+02  0.1972657567741825E+02
  0.1964890286115455E+02  0.1957153583208015E+02  0.1949447338837024E+02  0.1941771433284116E+02  0.1934125747293573E+02
  0.1926510162070843E+02  0.1918924559281053E+02  0.1911368821047521E+02  0.1903842829950255E+02  0.1896346469024448E+02
  0.1888879621758975E+02  0.1881442172094871E+02  0.1874034004423818E+02  0.1866655003586625E+02  0.1859305054871696E+02
  0.1851984044013508E+02  0.1844691857191073E+02  0.1837428381026407E+02  0.1830193502582995E+02  0.1822987109364252E+02
  0.1815809089311978E+02  0.1808659330804825E+02  0.1801537722656749E+02  0.1794444154115466E+02  0.1787378514860914E+02
  0.1780340695003703E+02  0.1773330585083575E+02  0.1766348076067858E+02  0.1759393059349924E+02  0.1752465426747646E+02
  0.1745565070501853E+02  0.1738691883274793E+02  0.1731845758148590E+02  0.1725026588623711E+02  0.1718234268617418E+02
  0.1711468692462246E+02  0.1704729754904459E+02  0.1698017351102526E+02  0.1691331376625585E+02  0.1684671727451923E+02
  0.1678038299967443E+02  0.1671430990964150E+02  0.1664849697638627E+02  0.1658294317590522E+02  0.1651764748821031E+02
  0.1645260889731384E+02  0.1638782639121347E+02  0.1632329896187709E+02  0.1625902560522787E+02  0.1619500532112921E+02
  0.1613123711336985E+02  0.1606771998964898E+02  0.1600445296156133E+02  0.1594143504458232E+02  0.1587866525805331E+02
  0.1581614262516682E+02  0.1575386617295180E+02  0.1569183493225897E+02  0.1563004793774619E+02  0.1556850422786381E+02
  0.1550720284484015E+02  0.1544614283466699E+02  0.1538532324708508E+02  0.1532474313556970E+02  0.1526440155731631E+02
  0.1520429757322614E+02  0.1514443024789195E+02  0.1508479864958374E+02  0.1502540185023457E+02  0.1496623892542630E+02
  0.1490730895437561E+02  0.1484861101991979E+02  0.1479014420850280E+02  0.1473190761016120E+02  0.1467390031851026E+02
  0.1461612143073008E+02  0.1455857004755171E+02  0.1450124527324334E+02  0.1444414621559656E+02  0.1438727198591265E+02
  0.1433062169898890E+02  0.1427419447310506E+02  0.1421798943000964E+02  0.1416200569490654E+02  0.1410624239644146E+02
  0.1405069866668853E+02  0.1399537364113694E+02  0.1394026645867754E+02  0.1388537626158963E+02  0.1383070219552768E+02
  0.1377624340950817E+02  0.1372199905589640E+02  0.1366796829039344E+02  0.1361415027202307E+02  0.1356054416311876E+02
  0.1350714912931076E+02  0.1345396433951313E+02  0.1340098896591097E+02  0.1334822218394751E+02  0.1329566317231140E+02
  0.1324331111292402E+02  0.1319116519092677E+02  0.1313922459466846E+02  0.1308748851569270E+02  0.1303595614872545E+02
  0.1298462669166247E+02  0.1293349934555693E+02  0.1288257331460698E+02  0.1283184780614345E+02  0.1278132203061754E+02
  0.1273099520158856E+02  0.1268086653571175E+02  0.1263093525272612E+02  0.1258120057544231E+02  0.1253166172973060E+02
  0.1248231794450881E+02  0.1243316845173038E+02  0.1238421248637243E+02  0.1233544928642390E+02  0.1228687809287367E+02
  0.1223849814969883E+02  0.1219030870385287E+02  0.1214230900525405E+02  0.1209449830677372E+02  0.1204687586422468E+02
  0.1199944093634966E+02  0.1195219278480979E+02  0.1190513067417312E+02  0.1185825387190317E+02  0.1181156164834761E+02
  0.1176505327672683E+02  0.1171872803312270E+02  0.1167258519646731E+02  0.1162662404853175E+02  0.1158084387391493E+02
  0.1153524396003248E+02  0.1148982359710567E+02  0.1144458207815037E+02  0.1139951869896601E+02  0.1135463275812472E+02
  0.1130992355696032E+02  0.1126539039955755E+02  0.1122103259274117E+02  0.1117684944606522E+02  0.1113284027180226E+02
  0.1108900438493269E+02  0.1104534110313408E+02  0.1100184974677057E+02  0.1095852963888228E+02  0.1091538010517478E+02
  0.1087240047400860E+02  0.1082959007638884E+02  0.1078694824595465E+02  0.1074447431896894E+02  0.1070216763430803E+02
  0.1066002753345139E+02  0.1061805336047137E+02  0.1057624446202295E+02  0.1053460018733369E+02  0.1049311988819346E+02
  0.1045180291894451E+02  0.1041064863647126E+02  0.1036965640019042E+02  0.1032882557204096E+02  0.1028815551647420E+02
  0.1024764560044391E+02  0.1020729519339647E+02  0.1016710366726105E+02  0.1012707039643983E+02  0.1008719475779827E+02
  0.1004747613065544E+02  0.1000791389677429E+02  0.9968507440352111E+01  0.9929256148010882E+01  0.9890159408787792E+01
  0.9851216614125658E+01  0.9812427157863510E+01  0.9773790436227122E+01  0.9735305847819657E+01  0.9696972793612254E+01
  0.9658790676934741E+01  0.9620758903466337E+01  0.9582876881226403E+01  0.9545144020565239E+01  0.9507559734154885E+01
  0.9470123436979994E+01  0.9432834546328726E+01  0.9395692481783668E+01  0.9358696665212832E+01  0.9321846520760610E+01
  0.9285141474838849E+01  0.9248580956117893E+01  0.9212164395517721E+01  0.9175891226199077E+01  0.9139760883554636E+01
  0.9103772805200226E+01  0.9067926430966073E+01  0.9032221202888094E+01  0.8996656565199194E+01  0.8961231964320623E+01
  0.8925946848853357E+01  0.8890800669569515E+01  0.8855792879403831E+01  0.8820922933445106E+01  0.8786190288927745E+01
  0.8751594405223305E+01  0.8717134743832087E+01  0.8682810768374738E+01  0.8648621944583923E+01  0.8614567740295991E+01
  0.8580647625442696E+01  0.8546861072042958E+01  0.8513207554194633E+01  0.8479686548066333E+01  0.8446297531889263E+01
  0.8413039985949110E+01  0.8379913392577951E+01  0.8346917236146199E+01  0.8314051003054566E+01  0.8281314181726074E+01
  0.8248706262598104E+01  0.8216226738114436E+01  0.8183875102717391E+01  0.8151650852839914E+01  0.8119553486897766E+01
  0.8087582505281725E+01  0.8055737410349776E+01  0.8024017706419395E+01  0.7992422899759808E+01  0.7960952498584340E+01
  0.7929606013042724E+01  0.7898382955213497E+01  0.7867282839096404E+01  0.7836305180604827E+01  0.7805449497558257E+01
  0.7774715309674772E+01  0.7744102138563595E+01  0.7713609507717610E+01  0.7683236942505959E+01  0.7652983970166675E+01
  0.7622850119799288E+01  0.7592834922357523E+01  0.7562937910641977E+01  0.7533158619292872E+01  0.7503496584782789E+01
  0.7473951345409460E+01  0.7444522441288590E+01  0.7415209414346686E+01  0.7386011808313941E+01  0.7356929168717111E+01
  0.7327961042872468E+01  0.7299106979878726E+01  0.7270366530610044E+01  0.7241739247709027E+01  0.7213224685579760E+01
  0.7184822400380877E+01  0.7156531950018649E+01  0.7128352894140109E+01  0.7100284794126186E+01  0.7072327213084881E+01
  0.7044479715844488E+01  0.7016741868946779E+01  0.6989113240640300E+01  0.6961593400873618E+01  0.6934181921288653E+01
  0.6906878375213982E+01  0.6879682337658228E+01  0.6852593385303419E+01  0.6825611096498412E+01  0.6798735051252336E+01
  0.6771964831228038E+01  0.6745300019735584E+01  0.6718740201725764E+01  0.6692284963783644E+01  0.6665933894122116E+01
  0.6639686582575500E+01  0.6613542620593155E+01  0.6587501601233121E+01  0.6561563119155784E+01  0.6535726770617560E+01
  0.6509992153464631E+01  0.6484358867126659E+01  0.6458826512610566E+01  0.6433394692494326E+01  0.6408063010920767E+01
  0.6382831073591428E+01  0.6357698487760396E+01  0.6332664862228216E+01  0.6307729807335786E+01  0.6282892934958299E+01
  0.6258153858499210E+01  0.6233512192884198E+01  0.6208967554555191E+01  0.6184519561464382E+01  0.6160167833068295E+01
  0.6135911990321850E+01  0.6111751655672469E+01  0.6087686453054201E+01  0.6063716007881863E+01  0.6039839947045218E+01
  0.6016057898903155E+01  0.5992369493277909E+01  0.5968774361449309E+01  0.5945272136149023E+01  0.5921862451554857E+01
  0.5898544943285047E+01  0.5875319248392588E+01  0.5852185005359604E+01  0.5829141854091691E+01  0.5806189435912341E+01
  0.5783327393557330E+01  0.5760555371169189E+01  0.5737873014291638E+01  0.5715279969864077E+01  0.5692775886216102E+01
  0.5670360413062012E+01  0.5648033201495376E+01  0.5625793903983585E+01  0.5603642174362448E+01  0.5581577667830815E+01
  0.5559600040945192E+01  0.5537708951614412E+01  0.5515904059094294E+01  0.5494185023982348E+01  0.5472551508212501E+01
  0.5451003175049812E+01  0.5429539689085252E+01  0.5408160716230474E+01  0.5386865923712612E+01  0.5365654980069105E+01
  0.5344527555142530E+01  0.5323483320075479E+01  0.5302521947305417E+01  0.5281643110559607E+01  0.5260846484850016E+01
  0.5240131746468259E+01  0.5219498572980568E+01  0.5198946643222761E+01  0.5178475637295255E+01  0.5158085236558076E+01
  0.5137775123625908E+01  0.5117544982363150E+01  0.5097394497878989E+01  0.5077323356522510E+01  0.5057331245877801E+01
  0.5037417854759105E+01  0.5017582873205961E+01  0.4997825992478390E+01  0.4978146905052086E+01  0.4958545304613626E+01
  0.4939020886055711E+01  0.4919573345472402E+01  0.4900202380154409E+01  0.4880907688584360E+01  0.4861688970432120E+01
  0.4842545926550117E+01  0.4823478258968673E+01  0.4804485670891382E+01  0.4785567866690476E+01  0.4766724551902239E+01
  0.4747955433222401E+01  0.4729260218501602E+01  0.4710638616740816E+01  0.4692090338086841E+01  0.4673615093827778E+01
  0.4655212596388541E+01  0.4636882559326381E+01  0.4618624697326418E+01  0.4600438726197219E+01  0.4582324362866355E+01
  0.4564281325376004E+01  0.4546309332878567E+01  0.4528408105632282E+01  0.4510577364996887E+01  0.4492816833429266E+01
  0.4475126234479146E+01  0.4457505292784777E+01  0.4439953734068657E+01  0.4422471285133265E+01  0.4405057673856794E+01
  0.4387712629188933E+01  0.4370435881146631E+01  0.4353227160809913E+01  0.4336086200317678E+01  0.4319012732863535E+01
  0.4302006492691658E+01  0.4285067215092633E+01  0.4268194636399357E+01  0.4251388493982914E+01  0.4234648526248506E+01
  0.4217974472631367E+01  0.4201366073592713E+01  0.4184823070615706E+01  0.4168345206201417E+01  0.4151932223864836E+01
  0.4135583868130864E+01  0.4119299884530347E+01  0.4103080019596105E+01  0.4086924020858999E+01  0.4070831636843993E+01
  0.4054802617066238E+01  0.4038836712027177E+01  0.4022933673210665E+01  0.4007093253079095E+01  0.3991315205069547E+01
  0.3975599283589944E+01  0.3959945244015243E+01  0.3944352842683621E+01  0.3928821836892665E+01  0.3913351984895627E+01
  0.3897943045897638E+01  0.3882594780051967E+01  0.3867306948456279E+01  0.3852079313148933E+01  0.3836911637105272E+01
  0.3821803684233915E+01  0.3806755219373113E+01  0.3791766008287066E+01  0.3776835817662291E+01  0.3761964415103972E+01
  0.3747151569132364E+01  0.3732397049179180E+01  0.3717700625583996E+01  0.3703062069590690E+01  0.3688481153343869E+01
  0.3673957649885333E+01  0.3659491333150528E+01  0.3645081977965041E+01  0.3630729360041095E+01  0.3616433255974040E+01
  0.3602193443238899E+01  0.3588009700186892E+01  0.3573881806041984E+01  0.3559809540897453E+01  0.3545792685712470E+01
  0.3531831022308683E+01  0.3517924333366821E+01  0.3504072402423318E+01  0.3490275013866941E+01  0.3476531952935428E+01
  0.3462843005712151E+01  0.3449207959122786E+01  0.3435626600931999E+01  0.3422098719740131E+01  0.3408624104979919E+01
  0.3395202546913221E+01  0.3381833836627735E+01  0.3368517766033762E+01  0.3355254127860965E+01  0.3342042715655134E+01
  0.3328883323774984E+01  0.3315775747388946E+01  0.3302719782471983E+01  0.3289715225802410E+01  0.3276761874958734E+01
  0.3263859528316507E+01  0.3251007985045177E+01  0.3238207045104970E+01  0.3225456509243776E+01  0.3212756178994049E+01
  0.3200105856669707E+01  0.3187505345363069E+01  0.3174954448941782E+01  0.3162452972045771E+01  0.3150000720084192E+01
  0.3137597499232416E+01  0.3125243116428997E+01  0.3112937379372681E+01  0.3100680096519401E+01  0.3088471077079300E+01
  0.3076310131013766E+01  0.3064197069032465E+01  0.3052131702590403E+01  0.3040113843884984E+01  0.3028143305853095E+01
  0.3016219902168183E+01  0.3004343447237368E+01  0.2992513756198542E+01  0.2980730644917502E+01  0.2968993929985074E+01
  0.2957303428714267E+01  0.2945658959137423E+01  0.2934060340003387E+01  0.2922507390774686E+01  0.2910999931624721E+01
  0.2899537783434964E+01  0.2888120767792171E+01  0.2876748706985603E+01  0.2865421424004267E+01  0.2854138742534154E+01
  0.2842900486955496E+01  0.2831706482340033E+01  0.2820556554448292E+01  0.2809450529726872E+01  0.2798388235305741E+01
  0.2787369498995554E+01  0.2776394149284960E+01  0.2765462015337942E+01  0.2754572926991155E+01  0.2743726714751281E+01
  0.2732923209792377E+01  0.2722162243953265E+01  0.2711443649734907E+01  0.2700767260297793E+01  0.2690132909459350E+01
  0.2679540431691356E+01  0.2668989662117360E+01  0.2658480436510115E+01  0.2648012591289024E+01  0.2637585963517599E+01
  0.2627200390900911E+01  0.2616855711783076E+01  0.2606551765144736E+01  0.2596288390600551E+01  0.2586065428396700E+01
  0.2575882719408402E+01  0.2565740105137431E+01  0.2555637427709653E+01  0.2545574529872568E+01  0.2535551254992864E+01
  0.2525567447053978E+01  0.2515622950653663E+01  0.2505717611001574E+01  0.2495851273916863E+01  0.2486023785825764E+01
  0.2476234993759220E+01  0.2466484745350491E+01  0.2456772888832789E+01  0.2447099273036906E+01  0.2437463747388871E+01
  0.2427866161907604E+01  0.2418306367202575E+01  0.2408784214471489E+01  0.2399299555497962E+01  0.2389852242649217E+01
  0.2380442128873782E+01  0.2371069067699210E+01  0.2361732913229792E+01  0.2352433520144282E+01  0.2343170743693649E+01
  0.2333944439698811E+01  0.2324754464548398E+01  0.2315600675196509E+01  0.2306482929160496E+01  0.2297401084518739E+01
  0.2288354999908436E+01  0.2279344534523408E+01  0.2270369548111903E+01  0.2261429900974418E+01  0.2252525453961514E+01
  0.2243656068471664E+01  0.2234821606449085E+01  0.2226021930381592E+01  0.2217256903298460E+01  0.2208526388768290E+01
  0.2199830250896889E+01  0.2191168354325143E+01  0.2182540564226926E+01  0.2173946746306992E+01  0.2165386766798884E+01
  0.2156860492462856E+01  0.2148367790583799E+01  0.2139908528969173E+01  0.2131482575946948E+01  0.2123089800363557E+01
  0.2114730071581858E+01  0.2106403259479091E+01  0.2098109234444860E+01  0.2089847867379116E+01  0.2081619029690146E+01
  0.2073422593292563E+01  0.2065258430605329E+01  0.2057126414549755E+01  0.2049026418547533E+01  0.2040958316518752E+01
  0.2032921982879953E+01  0.2024917292542164E+01  0.2016944120908948E+01  0.2009002343874479E+01  0.2001091837821595E+01
  0.1993212479619886E+01  0.1985364146623764E+01  0.1977546716670568E+01  0.1969760068078656E+01  0.1962004079645504E+01
  0.1954278630645836E+01  0.1946583600829728E+01  0.1938918870420749E+01  0.1931284320114086E+01  0.1923679831074696E+01
  0.1916105284935454E+01  0.1908560563795302E+01  0.1901045550217428E+01  0.1893560127227429E+01  0.1886104178311490E+01
  0.1878677587414574E+01  0.1871280238938615E+01  0.1863912017740716E+01  0.1856572809131360E+01  0.1849262498872622E+01
  0.1841980973176396E+01  0.1834728118702615E+01  0.1827503822557494E+01  0.1820307972291771E+01  0.1813140455898955E+01
  0.1806001161813585E+01  0.1798889978909493E+01  0.1791806796498073E+01  0.1784751504326557E+01  0.1777723992576302E+01
  0.1770724151861080E+01  0.1763751873225372E+01  0.1756807048142676E+01  0.1749889568513818E+01  0.1742999326665264E+01
  0.1736136215347452E+01  0.1729300127733113E+01  0.1722490957415620E+01  0.1715708598407320E+01  0.1708952945137891E+01
  0.1702223892452699E+01  0.1695521335611157E+01  0.1688845170285098E+01  0.1682195292557151E+01  0.1675571598919122E+01
  0.1668973986270385E+01  0.1662402351916272E+01  0.1655856593566483E+01  0.1649336609333485E+01  0.1642842297730935E+01
  0.1636373557672089E+01  0.1629930288468240E+01  0.1623512389827146E+01  0.1617119761851464E+01  0.1610752305037205E+01
  0.1604409920272176E+01  0.1598092508834444E+01  0.1591799972390794E+01  0.1585532212995204E+01  0.1579289133087314E+01
  0.1573070635490913E+01  0.1566876623412424E+01  0.1560707000439396E+01  0.1554561670539008E+01  0.1548440538056568E+01
  0.1542343507714027E+01  0.1536270484608498E+01  0.1530221374210779E+01  0.1524196082363873E+01  0.1518194515281534E+01
  0.1512216579546802E+01  0.1506262182110548E+01  0.1500331230290024E+01  0.1494423631767429E+01  0.1488539294588461E+01
  0.1482678127160891E+01  0.1476840038253141E+01  0.1471024936992858E+01  0.1465232732865499E+01  0.1459463335712928E+01
  0.1453716655732007E+01  0.1447992603473204E+01  0.1442291089839192E+01  0.1436612026083472E+01  0.1430955323808985E+01
  0.1425320894966737E+01  0.1419708651854431E+01  0.1414118507115100E+01  0.1408550373735749E+01  0.1403004165045996E+01
  0.1397479794716728E+01  0.1391977176758757E+01  0.1386496225521475E+01  0.1381036855691533E+01  0.1375598982291500E+01
  0.1370182520678547E+01  0.1364787386543130E+01  0.1359413495907678E+01  0.1354060765125280E+01  0.1348729110878389E+01
  0.1343418450177523E+01  0.1338128700359976E+01  0.1332859779088525E+01  0.1327611604350154E+01  0.1322384094454775E+01
  0.1317177168033958E+01  0.1311990744039662E+01  0.1306824741742978E+01  0.1301679080732867E+01  0.1296553680914909E+01
  0.1291448462510061E+01  0.1286363346053413E+01  0.1281298252392947E+01  0.1276253102688312E+01  0.1271227818409588E+01
  0.1266222321336073E+01  0.1261236533555062E+01  0.1256270377460629E+01  0.1251323775752428E+01  0.1246396651434481E+01
  0.1241488927813986E+01  0.1236600528500123E+01  0.1231731377402859E+01  0.1226881398731770E+01  0.1222050516994858E+01
  0.1217238656997376E+01  0.1212445743840661E+01  0.1207671702920962E+01  0.1202916459928284E+01  0.1198179940845229E+01
  0.1193462071945846E+01  0.1188762779794479E+01  0.1184081991244629E+01  0.1179419633437811E+01  0.1174775633802423E+01
  0.1170149920052618E+01  0.1165542420187172E+01  0.1160953062488369E+01  0.1156381775520883E+01  0.1151828488130668E+01
  0.1147293129443846E+01  0.1142775628865608E+01  0.1138275916079114E+01  0.1133793921044393E+01  0.1129329573997267E+01
  0.1124882805448247E+01  0.1120453546181465E+01  0.1116041727253589E+01  0.1111647279992754E+01  0.1107270135997491E+01
  0.1102910227135665E+01  0.1098567485543408E+01  0.1094241843624071E+01  0.1089933234047163E+01  0.1085641589747314E+01
  0.1081366843923220E+01  0.1077108930036607E+01  0.1072867781811197E+01  0.1068643333231681E+01  0.1064435518542674E+01
  0.1060244272247714E+01  0.1056069529108227E+01  0.1051911224142514E+01  0.1047769292624744E+01  0.1043643670083944E+01
  0.1039534292302995E+01  0.1035441095317631E+01  0.1031364015415444E+01  0.1027302989134899E+01  0.1023257953264332E+01
  0.1019228844840979E+01  0.1015215601149988E+01  0.1011218159723451E+01  0.1007236458339417E+01  0.1003270435020940E+01
  0.9993200280351034E+00  0.9953851758920632E+00  0.9914658173440860E+00  0.9875618913846045E+00  0.9836733372472583E+00
  0.9798000944049527E+00  0.9759421025689153E+00  0.9720993016877590E+00  0.9682716319465438E+00  0.9644590337658475E+00
  0.9606614478008378E+00  0.9568788149403508E+00  0.9531110763059629E+00  0.9493581732510852E+00  0.9456200473600400E+00
  0.9418966404471603E+00  0.9381878945558731E+00  0.9344937519578089E+00  0.9308141551518938E+00  0.9271490468634582E+00
  0.9234983700433431E+00  0.9198620678670150E+00  0.9162400837336758E+00  0.9126323612653856E+00  0.9090388443061826E+00
  0.9054594769212111E+00  0.9018942033958450E+00  0.8983429682348276E+00  0.8948057161613997E+00  0.8912823921164458E+00
  0.8877729412576282E+00  0.8842773089585423E+00  0.8807954408078581E+00  0.8773272826084761E+00  0.8738727803766816E+00
  0.8704318803413065E+00  0.8670045289428876E+00  0.8635906728328351E+00  0.8601902588725991E+00  0.8568032341328465E+00
  0.8534295458926282E+00  0.8500691416385660E+00  0.8467219690640283E+00  0.8433879760683199E+00  0.8400671107558630E+00
  0.8367593214353972E+00  0.8334645566191674E+00  0.8301827650221230E+00  0.8269138955611189E+00  0.8236578973541210E+00
  0.8204147197194086E+00  0.8171843121747878E+00  0.8139666244368021E+00  0.8107616064199529E+00  0.8075692082359099E+00
  0.8043893801927430E+00  0.8012220727941390E+00  0.7980672367386369E+00  0.7949248229188502E+00  0.7917947824207103E+00
  0.7886770665226959E+00  0.7855716266950764E+00  0.7824784145991531E+00  0.7793973820865077E+00  0.7763284811982458E+00
  0.7732716641642526E+00  0.7702268834024446E+00  0.7671940915180294E+00  0.7641732413027604E+00  0.7611642857342071E+00
  0.7581671779750138E+00  0.7551818713721705E+00  0.7522083194562850E+00  0.7492464759408557E+00  0.7462962947215483E+00
  0.7433577298754742E+00  0.7404307356604737E+00  0.7375152665144021E+00  0.7346112770544134E+00  0.7317187220762533E+00
  0.7288375565535514E+00  0.7259677356371158E+00  0.7231092146542314E+00  0.7202619491079626E+00  0.7174258946764531E+00
  0.7146010072122341E+00  0.7117872427415304E+00  0.7089845574635760E+00  0.7061929077499220E+00  0.7034122501437561E+00
  0.7006425413592189E+00  0.6978837382807284E+00  0.6951357979622990E+00  0.6923986776268708E+00  0.6896723346656362E+00
  0.6869567266373711E+00  0.6842518112677692E+00  0.6815575464487765E+00  0.6788738902379283E+00  0.6762008008576920E+00
  0.6735382366948072E+00  0.6708861562996338E+00  0.6682445183854958E+00  0.6656132818280338E+00  0.6629924056645549E+00
  0.6603818490933875E+00  0.6577815714732393E+00  0.6551915323225531E+00  0.6526116913188690E+00  0.6500420082981877E+00
  0.6474824432543360E+00  0.6449329563383325E+00  0.6423935078577582E+00  0.6398640582761279E+00  0.6373445682122643E+00
  0.6348349984396719E+00  0.6323353098859182E+00  0.6298454636320102E+00  0.6273654209117774E+00  0.6248951431112557E+00
  0.6224345917680743E+00  0.6199837285708411E+00  0.6175425153585342E+00  0.6151109141198927E+00  0.6126888869928115E+00
  0.6102763962637344E+00  0.6078734043670531E+00  0.6054798738845055E+00  0.6030957675445768E+00  0.6007210482219019E+00
  0.5983556789366705E+00  0.5959996228540322E+00  0.5936528432835044E+00  0.5913153036783818E+00  0.5889869676351501E+00
  0.5866677988928942E+00  0.5843577613327158E+00  0.5820568189771484E+00  0.5797649359895767E+00  0.5774820766736510E+00
  0.5752082054727140E+00  0.5729432869692179E+00  0.5706872858841504E+00  0.5684401670764585E+00  0.5662018955424769E+00
  0.5639724364153527E+00  0.5617517549644770E+00  0.5595398165949134E+00  0.5573365868468326E+00  0.5551420313949407E+00
  0.5529561160479182E+00  0.5507788067478516E+00  0.5486100695696734E+00  0.5464498707205947E+00  0.5442981765395505E+00
  0.5421549534966335E+00  0.5400201681925380E+00  0.5378937873580008E+00  0.5357757778532459E+00  0.5336661066674242E+00
  0.5315647409180622E+00  0.5294716478505035E+00  0.5273867948373601E+00  0.5253101493779532E+00  0.5232416790977666E+00
  0.5211813517478914E+00  0.5191291352044779E+00  0.5170849974681809E+00  0.5150489066636166E+00  0.5130208310388069E+00
  0.5110007389646350E+00  0.5089885989342949E+00  0.5069843795627454E+00  0.5049880495861612E+00  0.5029995778613857E+00
  0.5010189333653852E+00  0.4990460851947021E+00  0.4970810025649065E+00  0.4951236548100533E+00  0.4931740113821323E+00
  0.4912320418505254E+00  0.4892977159014564E+00  0.4873710033374488E+00  0.4854518740767761E+00  0.4835402981529172E+00
  0.4816362457140075E+00  0.4797396870222945E+00  0.4778505924535879E+00  0.4759689324967120E+00  0.4740946777529578E+00
  0.4722277989355352E+00  0.4703682668690206E+00  0.4685160524888093E+00  0.4666711268405632E+00  0.4648334610796608E+00
  0.4630030264706411E+00  0.4611797943866551E+00  0.4593637363089075E+00  0.4575548238261040E+00  0.4557530286338914E+00
  0.4539583225343042E+00  0.4521706774352018E+00  0.4503900653497107E+00  0.4486164583956608E+00  0.4468498287950251E+00
  0.4450901488733515E+00  0.4433373910591987E+00  0.4415915278835673E+00  0.4398525319793313E+00  0.4381203760806626E+00
  0.4363950330224624E+00  0.4346764757397811E+00  0.4329646772672439E+00  0.4312596107384662E+00  0.4295612493854767E+00
  0.4278695665381279E+00  0.4261845356235108E+00  0.4245061301653647E+00  0.4228343237834850E+00  0.4211690901931266E+00
  0.4195104032044066E+00  0.4178582367217019E+00  0.4162125647430470E+00  0.4145733613595227E+00  0.4129406007546493E+00
  0.4113142572037692E+00  0.4096943050734306E+00  0.4080807188207647E+00  0.4064734729928628E+00  0.4048725422261443E+00
  0.4032779012457254E+00  0.4016895248647810E+00  0.4001073879839045E+00  0.3985314655904605E+00  0.3969617327579352E+00
  0.3953981646452818E+00  0.3938407364962602E+00  0.3922894236387726E+00  0.3907442014841953E+00  0.3892050455267020E+00
  0.3876719313425853E+00  0.3861448345895707E+00  0.3846237310061263E+00  0.3831085964107659E+00  0.3815994067013457E+00
  0.3800961378543571E+00  0.3785987659242108E+00  0.3771072670425180E+00  0.3756216174173599E+00  0.3741417933325561E+00
  0.3726677711469222E+00  0.3711995272935227E+00  0.3697370382789167E+00  0.3682802806823935E+00  0.3668292311552050E+00
  0.3653838664197868E+00  0.3639441632689746E+00  0.3625100985652091E+00  0.3610816492397355E+00  0.3596587922917938E+00
  0.3582415047878000E+00  0.3568297638605199E+00  0.3554235467082313E+00  0.3540228305938802E+00  0.3526275928442256E+00
  0.3512378108489751E+00  0.3498534620599124E+00  0.3484745239900109E+00  0.3471009742125418E+00  0.3457327903601684E+00
  0.3443699501240323E+00  0.3430124312528249E+00  0.3416602115518538E+00  0.3403132688820919E+00  0.3389715811592180E+00
  0.3376351263526473E+00  0.3363038824845441E+00  0.3349778276288303E+00  0.3336569399101732E+00  0.3323411975029673E+00
  0.3310305786302987E+00  0.3297250615629000E+00  0.3284246246180872E+00  0.3271292461586871E+00  0.3258389045919485E+00
  0.3245535783684386E+00  0.3232732459809286E+00  0.3219978859632591E+00  0.3207274768891939E+00  0.3194619973712596E+00
  0.3182014260595649E+00  0.3169457416406096E+00  0.3156949228360719E+00  0.3144489484015845E+00  0.3132077971254902E+00
  0.3119714478275826E+00  0.3107398793578274E+00  0.3095130705950690E+00  0.3082910004457159E+00  0.3070736478424096E+00
  0.3058609917426768E+00  0.3046530111275579E+00  0.3034496850002212E+00  0.3022509923845556E+00  0.3010569123237420E+00
  0.2998674238788090E+00  0.2986825061271621E+00  0.2975021381610981E+00  0.2963262990862946E+00  0.2951549680202807E+00
  0.2939881240908827E+00  0.2928257464346519E+00  0.2916678141952668E+00  0.2905143065219137E+00  0.2893652025676454E+00
  0.2882204814877157E+00  0.2870801224378892E+00  0.2859441045727296E+00  0.2848124070438610E+00  0.2836850089982075E+00
  0.2825618895762045E+00  0.2814430279099883E+00  0.2803284031215577E+00  0.2792179943209109E+00  0.2781117806041550E+00
  0.2770097410515913E+00  0.2759118547257705E+00  0.2748181006695235E+00  0.2737284579039642E+00  0.2726429054264643E+00
  0.2715614222085987E+00  0.2704839871940661E+00  0.2694105792965770E+00  0.2683411773977153E+00  0.2672757603447711E+00
  0.2662143069485420E+00  0.2651567959811065E+00  0.2641032061735677E+00  0.2630535162137644E+00  0.2620077047439560E+00
  0.2609657503584729E+00  0.2599276316013373E+00  0.2588933269638550E+00  0.2578628148821744E+00  0.2568360737348130E+00
  0.2558130818401554E+00  0.2547938174539167E+00  0.2537782587665774E+00  0.2527663839007825E+00  0.2517581709087138E+00
  0.2507535977694252E+00  0.2497526423861501E+00  0.2487552825835732E+00  0.2477614961050744E+00  0.2467712606099371E+00
  0.2457845536705261E+00  0.2448013527694347E+00  0.2438216352965997E+00  0.2428453785463823E+00  0.2418725597146224E+00
  0.2409031558956574E+00  0.2399371440793132E+00  0.2389745011478622E+00  0.2380152038729546E+00  0.2370592289125151E+00
  0.2361065528076155E+00  0.2351571519793131E+00  0.2342110027254648E+00  0.2332680812175121E+00  0.2323283634972370E+00
  0.2313918254734942E+00  0.2304584429189168E+00  0.2295281914665947E+00  0.2286010466067323E+00  0.2276769836832801E+00
  0.2267559778905461E+00  0.2258380042697843E+00  0.2249230377057656E+00  0.2240110529233269E+00  0.2231020244839057E+00
  0.2221959267820560E+00  0.2212927340419515E+00  0.2203924203138760E+00  0.2194949594706993E+00  0.2186003252043484E+00
  0.2177084910222676E+00  0.2168194302438733E+00  0.2159331159970070E+00  0.2150495212143846E+00  0.2141686186300491E+00
  0.2132903807758237E+00  0.2124147799777757E+00  0.2115417883526839E+00  0.2106713778045217E+00  0.2098035200209530E+00
  0.2089381864698460E+00  0.2080753483958108E+00  0.2072149768167572E+00  0.2063570425204855E+00  0.2055015160613078E+00
  0.2046483677567044E+00  0.2037975676840229E+00  0.2029490856772216E+00  0.2021028913236620E+00  0.2012589539609554E+00
  0.2004172426738709E+00  0.1995777262913062E+00  0.1987403733833291E+00  0.1979051522582952E+00  0.1970720309600468E+00
  0.1962409772652013E+00  0.1954119586805309E+00  0.1945849424404476E+00  0.1937598955045934E+00  0.1929367845555460E+00
  0.1921155759966485E+00  0.1912962359499695E+00  0.1904787302544004E+00  0.1896630244639025E+00  0.1888490838459063E+00
  0.1880368733798796E+00  0.1872263577560667E+00  0.1864175013744121E+00  0.1856102683436780E+00  0.1848046224807671E+00
  0.1840005273102571E+00  0.1831979460641626E+00  0.1823968416819356E+00  0.1815971768107103E+00  0.1807989138058124E+00
  0.1800020147315401E+00  0.1792064413622300E+00  0.1784121551836238E+00  0.1776191173945447E+00  0.1768272889089037E+00
  0.1760366303580429E+00  0.1752471020934365E+00  0.1744586641897594E+00  0.1736712764483438E+00  0.1728848984010346E+00
  0.1720994893144628E+00  0.1713150081947531E+00  0.1705314137926797E+00  0.1697486646092912E+00  0.1689667189020197E+00
  0.1681855346912908E+00  0.1674050697676563E+00  0.1666252816994628E+00  0.1658461278410801E+00  0.1650675653417035E+00
  0.1642895511547524E+00  0.1635120420478819E+00  0.1627349946136299E+00  0.1619583652807156E+00  0.1611821103260114E+00
  0.1604061858872102E+00  0.1596305479762012E+00  0.1588551524931819E+00  0.1580799552415221E+00  0.1573049119433984E+00
  0.1565299782562250E+00  0.1557551097898919E+00  0.1549802621248390E+00  0.1542053908309781E+00  0.1534304514874864E+00
  0.1526553997034865E+00  0.1518801911396349E+00  0.1511047815306332E+00  0.1503291267086807E+00  0.1495531826278856E+00
  0.1487769053896492E+00  0.1480002512690371E+00  0.1472231767421558E+00  0.1464456385145414E+00  0.1456675935505795E+00
  0.1448889991039597E+00  0.1441098127491816E+00  0.1433299924141149E+00  0.1425494964136237E+00  0.1417682834842577E+00
  0.1409863128200168E+00  0.1402035441091878E+00  0.1394199375722536E+00  0.1386354540008754E+00  0.1378500547979393E+00
  0.1370637020186616E+00  0.1362763584127472E+00  0.1354879874675824E+00  0.1346985534524552E+00  0.1339080214637787E+00
  0.1331163574713042E+00  0.1323235283652932E+00  0.1315295020046292E+00  0.1307342472658324E+00  0.1299377340929503E+00
  0.1291399335482819E+00  0.1283408178638975E+00  0.1275403604939100E+00  0.1267385361674481E+00  0.1259353209422775E+00
  0.1251306922590180E+00  0.1243246289958901E+00  0.1235171115239312E+00  0.1227081217626065E+00  0.1218976432357481E+00
  0.1210856611277345E+00  0.1202721623398371E+00  0.1194571355466381E+00  0.1186405712524359E+00  0.1178224618475334E+00
  0.1170028016643153E+00  0.1161815870330054E+00  0.1153588163369951E+00  0.1145344900676289E+00  0.1137086108783296E+00
  0.1128811836379405E+00  0.1120522154831583E+00  0.1112217158699276E+00  0.1103896966236646E+00  0.1095561719881703E+00
  0.1087211586730979E+00  0.1078846758998284E+00  0.1070467454456127E+00  0.1062073916858318E+00  0.1053666416342252E+00
  0.1045245249809406E+00  0.1036810741282535E+00  0.1028363242238000E+00  0.1019903131911809E+00  0.1011430817577752E+00
  0.1002946734796226E+00  0.9944513476321817E-01  0.9859451488407943E-01  0.9774286600193494E-01  0.9689024317239983E-01
  0.9603670435499523E-01  0.9518231041738329E-01  0.9432712513568810E-01  0.9347121519077789E-01  0.9261465016039780E-01
  0.9175750250703976E-01  0.9089984756144832E-01  0.9004176350167217E-01  0.8918333132757243E-01  0.8832463483071627E-01
  0.8746576055958744E-01  0.8660679778006350E-01  0.8574783843110947E-01  0.8488897707566379E-01  0.8403031084669008E-01
  0.8317193938839247E-01  0.8231396479259862E-01  0.8145649153032705E-01  0.8059962637857795E-01  0.7974347834238886E-01
  0.7888815857221779E-01  0.7803378027673179E-01  0.7718045863108913E-01  0.7632831068081884E-01  0.7547745524141876E-01
  0.7462801279380682E-01  0.7378010537576850E-01  0.7293385646956940E-01  0.7208939088590252E-01  0.7124683464436424E-01
  0.7040631485065993E-01  0.6956795957075118E-01  0.6873189770217800E-01  0.6789825884278787E-01  0.6706717315712382E-01
  0.6623877124072997E-01  0.6541318398264326E-01  0.6459054242634500E-01  0.6377097762945834E-01  0.6295462052248260E-01
  0.6214160176685520E-01  0.6133205161264586E-01  0.6052609975618442E-01  0.5972387519792545E-01  0.5892550610086063E-01
  0.5813111964977911E-01  0.5734084191168800E-01  0.5655479769769036E-01  0.5577311042662216E-01  0.5499590199074403E-01
  0.5422329262377702E-01  0.5345540077156306E-01  0.5269234296562757E-01  0.5193423369991128E-01  0.5118118531092327E-01
  0.5043330786156695E-01  0.4969070902887058E-01  0.4895349399584424E-01  0.4822176534767564E-01  0.4749562297245612E-01
  0.4677516396662353E-01  0.4606048254528440E-01  0.4535166995756818E-01  0.4464881440715018E-01  0.4395200097806246E-01
  0.4326131156589461E-01  0.4257682481447352E-01  0.4189861605809350E-01  0.4122675726934657E-01  0.4056131701259556E-01
  0.3990236040310924E-01  0.3924994907186353E-01  0.3860414113600180E-01  0.3796499117492372E-01  0.3733255021196560E-01
  0.3670686570161506E-01  0.3608798152218944E-01  0.3547593797389498E-01  0.3487077178217216E-01  0.3427251610621561E-01
  0.3368120055255213E-01  0.3309685119354065E-01  0.3251949059065946E-01  0.3194913782242344E-01  0.3138580851677718E-01
  0.3082951488779298E-01  0.3028026577650338E-01  0.2973806669568418E-01  0.2920291987840458E-01  0.2867482433015447E-01
  0.2815377588435235E-01  0.2763976726103813E-01  0.2713278812855214E-01  0.2663282516799708E-01  0.2613986214028318E-01
  0.2565387995555251E-01  0.2517485674478326E-01  0.2470276793337138E-01  0.2423758631649273E-01  0.2377928213604805E-01
  0.2332782315899937E-01  0.2288317475690585E-01  0.2244529998647435E-01  0.2201415967094320E-01  0.2158971248212108E-01
  0.2117191502290922E-01  0.2076072191014172E-01  0.2035608585758074E-01  0.1995795775891397E-01  0.1956628677060313E-01
  0.1918102039444366E-01  0.1880210455969611E-01  0.1842948370466327E-01  0.1806310085758683E-01  0.1770289771675070E-01
  0.1734881472967851E-01  0.1700079117132468E-01  0.1665876522116284E-01  0.1632267403908179E-01  0.1599245384000623E-01
  0.1566803996716769E-01  0.1534936696395376E-01  0.1503636864427444E-01  0.1472897816138660E-01  0.1442712807512708E-01
  0.1413075041750698E-01  0.1383977675662967E-01  0.1355413825889634E-01  0.1327376574947161E-01  0.1299858977098473E-01
  0.1272854064044667E-01  0.1246354850437048E-01  0.1220354339208362E-01  0.1194845526722664E-01  0.1169821407743789E-01
  0.1145274980222471E-01  0.1121199249902829E-01  0.1097587234749032E-01  0.1074431969193481E-01  0.1051726508207875E-01
  0.1029463931199149E-01  0.1007637345732151E-01  0.9862398910815086E-02  0.9652647416150899E-02  0.9447051100117485E-02
  0.9245542503163291E-02  0.9048054608348899E-02  0.8854520868733130E-02  0.8664875233227213E-02  0.8479052170950001E-02
  0.8296986694120493E-02  0.8118614379523039E-02  0.7943871388582855E-02  0.7772694486087945E-02  0.7605021057596769E-02
  0.7440789125568490E-02  0.7279937364255158E-02  0.7122405113393963E-02  0.6968132390737852E-02  0.6817059903463829E-02
  0.6669129058496607E-02  0.6524281971785920E-02  0.6382461476575734E-02  0.6243611130702670E-02  0.6107675222960633E-02
  0.5974598778568502E-02  0.5844327563777412E-02  0.5716808089652254E-02  0.5591987615063563E-02  0.5469814148923199E-02
  0.5350236451698183E-02  0.5233204036235517E-02  0.5118667167929841E-02  0.5006576864266318E-02  0.4896884893768850E-02
  0.4789543774383742E-02  0.4684506771328383E-02  0.4581727894433060E-02  0.4481161895003572E-02  0.4382764262231512E-02
  0.4286491219178485E-02  0.4192299718358852E-02  0.4100147436946126E-02  0.4009992771626001E-02  0.3921794833119282E-02
  0.3835513440396605E-02  0.3751109114605777E-02  0.3668543072733046E-02  0.3587777221017191E-02  0.3508774148135769E-02
  0.3431497118181754E-02  0.3355910063448020E-02  0.3281977577036325E-02  0.3209664905307080E-02  0.3138937940185370E-02
  0.3069763211337576E-02  0.3002107878233242E-02  0.2935939722105341E-02  0.2871227137821741E-02  0.2807939125680477E-02
  0.2746045283140035E-02  0.2685515796496251E-02  0.2626321432516056E-02  0.2568433530038110E-02  0.2511823991550097E-02
  0.2456465274751482E-02  0.2402330384110276E-02  0.2349392862421963E-02  0.2297626782378316E-02  0.2247006738152937E-02
  0.2197507837010715E-02  0.2149105690947321E-02  0.2101776408364716E-02  0.2055496585788502E-02  0.2010243299632012E-02
  0.1965994098012469E-02  0.1922726992623446E-02  0.1880420450668016E-02  0.1839053386856586E-02  0.1798605155473088E-02
  0.1759055542512770E-02  0.1720384757894867E-02  0.1682573427753041E-02  0.1645602586806005E-02  0.1609453670810945E-02
  0.1574108509101843E-02  0.1539549317214585E-02  0.1505758689600759E-02  0.1472719592431552E-02  0.1440415356493313E-02
  0.1408829670175847E-02  0.1377946572554601E-02  0.1347750446567537E-02  0.1318226012287599E-02  0.1289358320291208E-02
  0.1261132745123409E-02  0.1233534978860009E-02  0.1206551024766838E-02  0.1180167191056406E-02  0.1154370084741939E-02
  0.1129146605588645E-02  0.1104483940162207E-02  0.1080369555974066E-02  0.1056791195723369E-02  0.1033736871634999E-02
  0.1011194859893351E-02  0.9891536951711904E-03  0.9676021652531392E-03  0.9465293057529923E-03  0.9259243949242274E-03
  0.9057769485630019E-03  0.8860767150026729E-03  0.8668136701991702E-03  0.8479780129062505E-03  0.8295601599396963E-03
  0.8115507415296083E-03  0.7939405967596892E-03  0.7767207690926077E-03  0.7598825019804059E-03  0.7434172345588577E-03
  0.7273165974247324E-03  0.7115724084949285E-03  0.6961766689462999E-03  0.6811215592351427E-03  0.6663994351951638E-03
  0.6520028242128776E-03  0.6379244214792000E-03  0.6241570863162026E-03  0.6106938385778053E-03  0.5975278551233347E-03
  0.5846524663627305E-03  0.5720611528723142E-03  0.5597475420799610E-03  0.5477054050185296E-03  0.5359286531463897E-03
  0.5244113352339888E-03  0.5131476343152306E-03  0.5021318647026614E-03  0.4913584690652230E-03  0.4808220155676009E-03
  0.4705171950699595E-03  0.4604388183870253E-03  0.4505818136054734E-03  0.4409412234584754E-03  0.4315122027563966E-03
  0.4222900158726030E-03  0.4132700342833248E-03  0.4044477341605470E-03  0.3958186940169349E-03  0.3873785924017695E-03
  0.3791232056469582E-03  0.3710484056620797E-03  0.3631501577775330E-03  0.3554245186348664E-03  0.3478676341233199E-03
  0.3404757373616550E-03  0.3332451467243964E-03  0.3261722639115506E-03  0.3192535720609787E-03  0.3124856339024722E-03
  0.3058650899527763E-03  0.2993886567506218E-03  0.2930531251310312E-03  0.2868553585380152E-03  0.2807922913748918E-03
  0.2748609273914578E-03  0.2690583381071923E-03  0.2633816612697923E-03  0.2578280993482443E-03  0.2523949180597241E-03
  0.2470794449296164E-03  0.2418790678839157E-03  0.2367912338733403E-03  0.2318134475284729E-03  0.2269432698452646E-03
  0.2221783169002276E-03  0.2175162585946997E-03  0.2129548174275240E-03  0.2084917672955591E-03  0.2041249323213750E-03
  0.1998521857075588E-03  0.1956714486170554E-03  0.1915806890789591E-03  0.1875779209191935E-03  0.1836612027155320E-03
  0.1798286367764411E-03  0.1760783681431867E-03  0.1724085836147020E-03  0.1688175107947283E-03  0.1653034171606910E-03
  0.1618646091538763E-03  0.1584994312903873E-03  0.1552062652924395E-03  0.1519835292395435E-03  0.1488296767391020E-03
  0.1457431961160186E-03  0.1427226096208624E-03  0.1397664726561802E-03  0.1368733730205580E-03  0.1340419301700091E-03
  0.1312707944963084E-03  0.1285586466218933E-03  0.1259041967109485E-03  0.1233061837963043E-03  0.1207633751217935E-03
  0.1182745654997218E-03  0.1158385766830924E-03  0.1134542567522598E-03  0.1111204795156775E-03  0.1088361439244235E-03
  0.1066001735001842E-03  0.1044115157763892E-03  0.1022691417521919E-03  0.1001720453590172E-03  0.9811924293936653E-04
  0.9610977273761174E-04  0.9414269440250648E-04  0.9221708850112902E-04  0.9033205604401578E-04  0.8848671802120780E-04
  0.8668021494896941E-04  0.8491170642693797E-04  0.8318037070544833E-04  0.8148540426281656E-04  0.7982602139233840E-04
  0.7820145379878325E-04  0.7661095020417148E-04  0.7505377596260767E-04  0.7352921268397007E-04  0.7203655786624936E-04
  0.7057512453633783E-04  0.6914424089906903E-04  0.6774324999432035E-04  0.6637150936199688E-04  0.6502839071470354E-04
  0.6371327961793699E-04  0.6242557517761654E-04  0.6116468973479026E-04  0.5993004856734661E-04  0.5872108959856823E-04
  0.5753726311237060E-04  0.5637803147507507E-04  0.5524286886355707E-04  0.5413126099962564E-04  0.5304270489049435E-04
  0.5197670857519157E-04  0.5093279087678524E-04  0.4991048116027727E-04  0.4890931909603910E-04  0.4792885442866633E-04
  0.4696864675111421E-04  0.4602826528400547E-04  0.4510728865997829E-04  0.4420530471296829E-04  0.4332191027230136E-04
  0.4245671096149209E-04  0.4160932100163440E-04  0.4077936301928202E-04  0.3996646785871216E-04  0.3917027439847113E-04
  0.3839042937210180E-04  0.3762658719296098E-04  0.3687840978302461E-04  0.3614556640559474E-04  0.3542773350181355E-04
  0.3472459453090010E-04  0.3403583981402127E-04  0.3336116638171285E-04  0.3270027782476856E-04  0.3205288414852005E-04
  0.3141870163042439E-04  0.3079745268088549E-04  0.3018886570723513E-04  0.2959267498079999E-04  0.2900862050698188E-04
  0.2843644789828406E-04  0.2787590825021324E-04  0.2732675801999445E-04  0.2678875890802837E-04  0.2626167774203442E-04
  0.2574528636381091E-04  0.2523936151855848E-04  0.2474368474670240E-04  0.2425804227815913E-04  0.2378222492898968E-04
  0.2331602800038555E-04  0.2285925117993365E-04  0.2241169844510611E-04  0.2197317796892509E-04  0.2154350202775405E-04
  0.2112248691116314E-04  0.2070995283382348E-04  0.2030572384938344E-04  0.1990962776628148E-04  0.1952149606544962E-04
  0.1914116381986618E-04  0.1876846961591356E-04  0.1840325547650201E-04  0.1804536678591617E-04  0.1769465221634637E-04
  0.1735096365606645E-04  0.1701415613921995E-04  0.1668408777717701E-04  0.1636061969142775E-04  0.1604361594797501E-04
  0.1573294349319471E-04  0.1542847209112771E-04  0.1513007426217173E-04  0.1483762522314162E-04  0.1455100282866654E-04
  0.1427008751389279E-04  0.1399476223846362E-04  0.1372491243174578E-04  0.1346042593927643E-04  0.1320119297039940E-04
  0.1294710604706743E-04  0.1269805995378043E-04  0.1245395168863680E-04  0.1221468041547050E-04  0.1198014741704979E-04
  0.1175025604931463E-04  0.1152491169662702E-04  0.1130402172801350E-04  0.1108749545437574E-04  0.1087524408664773E-04
  0.1066718069487901E-04  0.1046322016822145E-04  0.1026327917579992E-04  0.1006727612844728E-04  0.9875131141283565E-05
  0.9686765997120055E-05  0.9502104110670292E-05  0.9321070493549162E-05  0.9143591720043147E-05  0.8969595893633237E-05
  0.8799012614254137E-05  0.8631772946273436E-05  0.8467809387174046E-05  0.8307055836924238E-05  0.8149447568019517E-05
  0.7994921196182219E-05  0.7843414651702760E-05  0.7694867151408667E-05  0.7549219171248040E-05  0.7406412419471952E-05
   27     58.933         3.5440    fcc     
  0.0000000000000000E+00 -0.7655262171623534E-01 -0.1515415623858656E+00 -0.2249832341329956E+00 -0.2968940490817289E+00
 -0.3672904193561699E+00 -0.4361887570804226E+00 -0.5036054743785912E+00 -0.5695569833747804E+00 -0.6340596961930933E+00
 -0.6971300249576353E+00 -0.7587843817925088E+00 -0.8190391788218206E+00 -0.8779108281696719E+00 -0.9354157419601686E+00
 -0.9915703323174140E+00 -0.1046391011365513E+01 -0.1099894191228569E+01 -0.1152096284030687E+01 -0.1203013701895970E+01
 -0.1252662856948523E+01 -0.1301060161312450E+01 -0.1348222027111855E+01 -0.1394164866470842E+01 -0.1438905091513516E+01
 -0.1482459114363979E+01 -0.1524843347146339E+01 -0.1566074201984695E+01 -0.1606168091003155E+01 -0.1645141426325823E+01
 -0.1683010620076801E+01 -0.1719792084380194E+01 -0.1755502231360107E+01 -0.1790157473140644E+01 -0.1823774221845908E+01
 -0.1856368889600004E+01 -0.1887957888527035E+01 -0.1918557630751108E+01 -0.1948184528396324E+01 -0.1976854993586789E+01
 -0.2004585438446605E+01 -0.2031392275099879E+01 -0.2057291915670714E+01 -0.2082300772283213E+01 -0.2106435257061482E+01
 -0.2129711782129624E+01 -0.2152146759611743E+01 -0.2173756601631944E+01 -0.2194557720314330E+01 -0.2214566527783006E+01
 -0.2233799436162076E+01 -0.2252272857575643E+01 -0.2270003204147813E+01 -0.2287006888002690E+01 -0.2303300321264377E+01
 -0.2318899916056979E+01 -0.2333822084504598E+01 -0.2348083238731341E+01 -0.2361699790861311E+01 -0.2374688153018612E+01
 -0.2387064737327349E+01 -0.2398845955911624E+01 -0.2410048220895543E+01 -0.2420687944403210E+01 -0.2430781538558729E+01
 -0.2440345415486204E+01 -0.2449395987309738E+01 -0.2457949666153437E+01 -0.2466022864141405E+01 -0.2473631993397745E+01
 -0.2480793466046561E+01 -0.2487523694211959E+01 -0.2493839090018040E+01 -0.2499756065588912E+01 -0.2505291033048676E+01
 -0.2510460404521438E+01 -0.2515280592131302E+01 -0.2519768008002370E+01 -0.2523939064258748E+01 -0.2527810173024541E+01
 -0.2531397746423852E+01 -0.2534718196580784E+01 -0.2537787935619443E+01 -0.2540623375663932E+01 -0.2543240965581387E+01
 -0.2545649762567967E+01 -0.2547854684775861E+01 -0.2549860090755574E+01 -0.2551670339057615E+01 -0.2553289788232486E+01
 -0.2554722796830697E+01 -0.2555973723402752E+01 -0.2557046926499158E+01 -0.2557946764670420E+01 -0.2558677596467046E+01
 -0.2559243780439540E+01 -0.2559649675138410E+01 -0.2559899639114161E+01 -0.2559998030917300E+01 -0.2559949209098333E+01
 -0.2559757532207765E+01 -0.2559427358796103E+01 -0.2558963047413854E+01 -0.2558368956611523E+01 -0.2557649444939616E+01
 -0.2556808870948640E+01 -0.2555851593189100E+01 -0.2554781970211503E+01 -0.2553604360566355E+01 -0.2552323122804163E+01
